{"learner":{"attributes":{},"feature_names":[],"feature_types":[],"gradient_booster":{"model":{"cats":{"enc":[],"feature_segments":[],"sorted_idx":[]},"gbtree_model_param":{"num_parallel_tree":"1","num_trees":"300"},"iteration_indptr":[0,1,2,3,4,5,6,7,8,9,10,11,12,13,14,15,16,17,18,19,20,21,22,23,24,25,26,27,28,29,30,31,32,33,34,35,36,37,38,39,40,41,42,43,44,45,46,47,48,49,50,51,52,53,54,55,56,57,58,59,60,61,62,63,64,65,66,67,68,69,70,71,72,73,74,75,76,77,78,79,80,81,82,83,84,85,86,87,88,89,90,91,92,93,94,95,96,97,98,99,100,101,102,103,104,105,106,107,108,109,110,111,112,113,114,115,116,117,118,119,120,121,122,123,124,125,126,127,128,129,130,131,132,133,134,135,136,137,138,139,140,141,142,143,144,145,146,147,148,149,150,151,152,153,154,155,156,157,158,159,160,161,162,163,164,165,166,167,168,169,170,171,172,173,174,175,176,177,178,179,180,181,182,183,184,185,186,187,188,189,190,191,192,193,194,195,196,197,198,199,200,201,202,203,204,205,206,207,208,209,210,211,212,213,214,215,216,217,218,219,220,221,222,223,224,225,226,227,228,229,230,231,232,233,234,235,236,237,238,239,240,241,242,243,244,245,246,247,248,249,250,251,252,253,254,255,256,257,258,259,260,261,262,263,264,265,266,267,268,269,270,271,272,273,274,275,276,277,278,279,280,281,282,283,284,285,286,287,288,289,290,291,292,293,294,295,296,297,298,299,300],"tree_info":[0,0,0,0,0,0,0,0,0,0,0,0,0,0,0,0,0,0,0,0,0,0,0,0,0,0,0,0,0,0,0,0,0,0,0,0,0,0,0,0,0,0,0,0,0,0,0,0,0,0,0,0,0,0,0,0,0,0,0,0,0,0,0,0,0,0,0,0,0,0,0,0,0,0,0,0,0,0,0,0,0,0,0,0,0,0,0,0,0,0,0,0,0,0,0,0,0,0,0,0,0,0,0,0,0,0,0,0,0,0,0,0,0,0,0,0,0,0,0,0,0,0,0,0,0,0,0,0,0,0,0,0,0,0,0,0,0,0,0,0,0,0,0,0,0,0,0,0,0,0,0,0,0,0,0,0,0,0,0,0,0,0,0,0,0,0,0,0,0,0,0,0,0,0,0,0,0,0,0,0,0,0,0,0,0,0,0,0,0,0,0,0,0,0,0,0,0,0,0,0,0,0,0,0,0,0,0,0,0,0,0,0,0,0,0,0,0,0,0,0,0,0,0,0,0,0,0,0,0,0,0,0,0,0,0,0,0,0,0,0,0,0,0,0,0,0,0,0,0,0,0,0,0,0,0,0,0,0,0,0,0,0,0,0,0,0,0,0,0,0,0,0,0,0,0,0,0,0,0,0,0,0,0,0,0,0,0,0,0,0,0,0,0,0,0,0,0,0,0,0],"trees":[{"base_weights":[1.227959E-4,2.952096E-1,-3.5058436E-1,4.0159276E-1,7.48491E-2,-5.059372E-1,-2.389832E-1,4.9602726E-1,2.841667E-1,6.1128594E-2,5.90001E-1,-2.2657637E-1,-5.522883E-1,-3.072477E-1,-7.2355464E-2,5.7073236E-1,3.1987447E-1,3.2654104E-1,1.15464434E-1,2.5491629E-2,1.9528666E-1,-2.0210339E-1,8.5327107E-1,7.2523326E-2,-3.269416E-1,-2.6815054E-1,-5.6600493E-1,-3.131966E-1,4.250185E-1,1.8926722E-1,-1.6964927E-1,7.6888436E-1,5.381382E-1,5.025716E-1,2.8221294E-1,-1.315422E-1,3.3329102E-1,2.966979E-1,3.0853003E-3,-6.1389875E-1,3.6776204E-2,4.089033E-1,1.6036366E-1,2.7881274E-1,-3.2296804E-1,9.156511E-1,-5.067346E-2,-2.8647274E-2,1.778142E-1,5.5966944E-1,-3.7342173E-1,-5.5871046E-1,-6.7907006E-2,-6.454645E-1,-5.0482595E-1,-2.6070333E-1,-4.1069174E-1,-8.228435E-2,8.4246665E-1,2.8920552E-1,9.8416865E-2,-1.2181482E-1,-5.127254E-1,7.378115E-3,3.9763708E-2,9.077714E-4,2.8081227E-2,3.3387296E-2,1.7837834E-2,-1.35361655E-2,1.4653208E-2,-2.152164E-2,5.074192E-3,2.3204155E-2,1.53224645E-2,-6.158741E-3,1.6533427E-2,-2.1068573E-2,2.136874E-3,-4.0142518E-2,5.040559E-3,9.478732E-3,-1.5298573E-4,2.2962434E-2,4.622036E-3,5.047061E-3,1.4535307E-2,-3.813499E-4,2.0058943E-2,-2.0366147E-2,1.255727E-2,2.3054572E-2,4.693484E-2,-1.0828436E-2,8.028807E-3,1.45985605E-2,-5.735381E-3,4.1533303E-2,5.900501E-3,-2.0669473E-2,1.8034002E-2,-3.8822144E-2,-2.0954473E-2,1.641734E-2,-5.507635E-3,-9.721336E-3,-3.2664504E-2,-2.5678469E-2,6.2723244E-3,-1.6800134E-2,-9.434103E-3,-2.114287E-2,1.1103018E-3,-1.1700528E-2,1.5321116E-2,4.4909336E-2,7.0093684E-3,-9.7232824E-4,1.6458528E-2,2.929516E-3,2.1181842E-2,-3.1782116E-3,-1.1244095E-2,-1.9275595E-2,-3.453659E-2],"categories":[],"categories_nodes":[],"categories_segments":[],"categories_sizes":[],"default_left":[0,0,0,0,0,0,0,0,0,0,0,0,0,0,0,0,0,0,0,0,0,0,0,0,0,0,0,0,0,0,0,0,0,0,0,0,0,0,0,0,0,0,0,0,0,0,0,0,0,0,0,0,0,0,0,0,0,0,0,0,0,0,0,0,0,0,0,0,0,0,0,0,0,0,0,0,0,0,0,0,0,0,0,0,0,0,0,0,0,0,0,0,0,0,0,0,0,0,0,0,0,0,0,0,0,0,0,0,0,0,0,0,0,0,0,0,0,0,0,0,0,0,0,0,0],"id":0,"left_children":[1,3,5,7,9,11,13,15,17,19,21,23,25,27,29,31,33,35,37,39,41,43,45,47,49,51,53,55,57,59,61,63,65,67,69,71,73,75,77,79,81,83,85,87,89,91,93,-1,95,97,99,101,103,105,107,109,111,113,115,117,119,121,123,-1,-1,-1,-1,-1,-1,-1,-1,-1,-1,-1,-1,-1,-1,-1,-1,-1,-1,-1,-1,-1,-1,-1,-1,-1,-1,-1,-1,-1,-1,-1,-1,-1,-1,-1,-1,-1,-1,-1,-1,-1,-1,-1,-1,-1,-1,-1,-1,-1,-1,-1,-1,-1,-1,-1,-1,-1,-1,-1,-1,-1,-1],"loss_changes":[1.3413787E3,1.649815E2,1.0256262E2,5.2498108E1,1.6171272E1,3.1923706E1,3.9203995E1,3.4423035E1,1.5104797E1,1.0678804E1,1.2553707E1,1.0647972E1,8.119141E0,1.0788361E1,2.5576044E1,1.1504272E1,5.262192E0,5.2769775E0,8.691456E0,1.2770324E1,3.4321957E0,9.979257E-1,2.569912E0,6.2007456E0,1.1136839E1,5.7587395E0,9.511108E0,1.2313278E1,4.3334355E0,2.4457178E0,1.1950598E1,4.1183014E0,1.9382935E1,2.963894E0,4.0000153E0,1.8053534E0,5.7141266E0,2.370531E0,4.4688396E0,4.226506E0,1.057396E1,9.9691105E-1,3.1045866E0,1.318258E-1,7.292379E-1,6.275177E-3,1.6922775E-1,0E0,2.6354058E0,1.5308619E0,7.559498E0,9.0608597E-1,1.0425695E0,2.9672546E0,6.3900146E0,8.506538E0,4.4733887E0,6.615024E-1,3.0980635E-1,1.6006889E0,1.8436645E0,3.8506308E0,1.755064E0,0E0,0E0,0E0,0E0,0E0,0E0,0E0,0E0,0E0,0E0,0E0,0E0,0E0,0E0,0E0,0E0,0E0,0E0,0E0,0E0,0E0,0E0,0E0,0E0,0E0,0E0,0E0,0E0,0E0,0E0,0E0,0E0,0E0,0E0,0E0,0E0,0E0,0E0,0E0,0E0,0E0,0E0,0E0,0E0,0E0,0E0,0E0,0E0,0E0,0E0,0E0,0E0,0E0,0E0,0E0,0E0,0E0,0E0,0E0,0E0,0E0,0E0],"parents":[2147483647,0,0,1,1,2,2,3,3,4,4,5,5,6,6,7,7,8,8,9,9,10,10,11,11,12,12,13,13,14,14,15,15,16,16,17,17,18,18,19,19,20,20,21,21,22,22,23,23,24,24,25,25,26,26,27,27,28,28,29,29,30,30,31,31,32,32,33,33,34,34,35,35,36,36,37,37,38,38,39,39,40,40,41,41,42,42,43,43,44,44,45,45,46,46,48,48,49,49,50,50,51,51,52,52,53,53,54,54,55,55,56,56,57,57,58,58,59,59,60,60,61,61,62,62],"right_children":[2,4,6,8,10,12,14,16,18,20,22,24,26,28,30,32,34,36,38,40,42,44,46,48,50,52,54,56,58,60,62,64,66,68,70,72,74,76,78,80,82,84,86,88,90,92,94,-1,96,98,100,102,104,106,108,110,112,114,116,118,120,122,124,-1,-1,-1,-1,-1,-1,-1,-1,-1,-1,-1,-1,-1,-1,-1,-1,-1,-1,-1,-1,-1,-1,-1,-1,-1,-1,-1,-1,-1,-1,-1,-1,-1,-1,-1,-1,-1,-1,-1,-1,-1,-1,-1,-1,-1,-1,-1,-1,-1,-1,-1,-1,-1,-1,-1,-1,-1,-1,-1,-1,-1,-1],"split_conditions":[-1.1886913E0,-8.871919E-1,-2.556238E-1,-5.3392196E-1,1.7891529E0,-8.356228E-1,2.3029888E-2,-2.237167E0,-6.3431007E-1,3.8650188E-1,-1.0954415E-1,-1.3412342E0,-1.365015E0,2.0040748E0,-6.1465746E-1,-2.5276885E0,-1.2989628E0,-3.236971E-2,1.0940051E0,-1.4934591E0,-2.2680248E-1,-1.1458247E0,-1.5211722E0,-7.6607084E-1,-9.506425E-1,-6.817692E-1,-3.921437E-1,-7.4544775E-1,-1.8081388E-2,-4.0959367E-3,-1.2031042E-1,-3.7882452E0,-3.3053486E0,-8.8628924E-1,-1.4312397E-2,-3.4596505E0,-1.0316318E0,-2.0926172E-2,-2.0560937E0,-6.5142816E-1,-1.972792E0,-7.835883E-3,-1.6236238E-1,-1.03467345E-1,-4.9928716E-1,-7.282754E-1,-5.5770436E-3,-2.8647274E-2,8.401389E-1,-1.2738292E-1,-2.466798E-3,-8.239616E-1,-7.4009E-1,-7.904055E-1,4.9067578E-1,-8.127642E-2,-1.0602633E-2,8.567357E-1,-4.8801637E-1,-1.1317885E0,2.6573084E-2,-7.761256E-1,-3.462157E-1,7.378115E-3,3.9763708E-2,9.077714E-4,2.8081227E-2,3.3387296E-2,1.7837834E-2,-1.35361655E-2,1.4653208E-2,-2.152164E-2,5.074192E-3,2.3204155E-2,1.53224645E-2,-6.158741E-3,1.6533427E-2,-2.1068573E-2,2.136874E-3,-4.0142518E-2,5.040559E-3,9.478732E-3,-1.5298573E-4,2.2962434E-2,4.622036E-3,5.047061E-3,1.4535307E-2,-3.813499E-4,2.0058943E-2,-2.0366147E-2,1.255727E-2,2.3054572E-2,4.693484E-2,-1.0828436E-2,8.028807E-3,1.45985605E-2,-5.735381E-3,4.1533303E-2,5.900501E-3,-2.0669473E-2,1.8034002E-2,-3.8822144E-2,-2.0954473E-2,1.641734E-2,-5.507635E-3,-9.721336E-3,-3.2664504E-2,-2.5678469E-2,6.2723244E-3,-1.6800134E-2,-9.434103E-3,-2.114287E-2,1.1103018E-3,-1.1700528E-2,1.5321116E-2,4.4909336E-2,7.0093684E-3,-9.7232824E-4,1.6458528E-2,2.929516E-3,2.1181842E-2,-3.1782116E-3,-1.1244095E-2,-1.9275595E-2,-3.453659E-2],"split_indices":[14,3,10,13,13,16,10,14,12,10,6,12,12,13,13,0,0,19,10,6,18,6,14,10,6,11,10,12,6,20,3,13,13,12,19,14,6,19,6,0,14,19,6,3,12,12,19,0,13,18,20,10,0,9,3,6,6,4,15,14,18,14,14,0,0,0,0,0,0,0,0,0,0,0,0,0,0,0,0,0,0,0,0,0,0,0,0,0,0,0,0,0,0,0,0,0,0,0,0,0,0,0,0,0,0,0,0,0,0,0,0,0,0,0,0,0,0,0,0,0,0,0,0,0,0],"split_type":[0,0,0,0,0,0,0,0,0,0,0,0,0,0,0,0,0,0,0,0,0,0,0,0,0,0,0,0,0,0,0,0,0,0,0,0,0,0,0,0,0,0,0,0,0,0,0,0,0,0,0,0,0,0,0,0,0,0,0,0,0,0,0,0,0,0,0,0,0,0,0,0,0,0,0,0,0,0,0,0,0,0,0,0,0,0,0,0,0,0,0,0,0,0,0,0,0,0,0,0,0,0,0,0,0,0,0,0,0,0,0,0,0,0,0,0,0,0,0,0,0,0,0,0,0],"sum_hessian":[1.2959552E4,7.0379463E3,5.921606E3,4.7459346E3,2.2920115E3,2.4740728E3,3.447533E3,2.6287E3,2.1172346E3,2.2336396E3,5.8371887E1,3.5291544E2,2.1211572E3,2.4450105E3,1.00252264E3,1.8443043E3,7.843957E2,1.6914447E3,4.2578998E2,1.7657786E3,4.6786108E2,1.4619207E1,4.3752678E1,8.87394E1,2.6417603E2,9.862884E1,2.0225284E3,2.425875E3,1.9135338E1,2.7150403E2,7.310186E2,2.5732687E2,1.5869774E3,1.3195137E2,6.5244434E2,2.429346E1,1.6671511E3,1.6234178E2,2.634482E2,2.9697544E1,1.736081E3,6.423577E1,4.036253E2,2.6737263E0,1.1945481E1,4.091616E1,2.8365192E0,1.1822418E1,7.6916985E1,1.2609428E1,2.515666E2,3.950934E1,5.9119495E1,8.75663E2,1.1468654E3,1.5792502E3,8.4662476E2,9.00045E0,1.0134888E1,1.28246E2,1.4325803E2,6.427555E2,8.826312E1,1.0752847E1,2.4657404E2,6.8658646E1,1.5183187E3,6.0190334E1,7.176103E1,1.2096627E1,6.403477E2,1.0271539E1,1.4021921E1,2.811069E2,1.3860443E3,1.1954894E1,1.5038689E2,2.1685804E1,2.4176239E2,2.339038E1,6.3071623E0,3.5823642E2,1.3778446E3,5.5029976E1,9.2058E0,2.78454E2,1.25171295E2,1.0809842E0,1.5927422E0,1.0668472E1,1.2770087E0,2.9879858E0,3.7928173E1,1.5747117E0,1.2618076E0,5.5327316E1,2.158967E1,7.2686763E0,5.3407526E0,2.3899173E2,1.2574877E1,1.3654581E1,2.5854757E1,5.0432057E0,5.407629E1,1.5374549E1,8.602885E2,1.1313558E3,1.5509472E1,7.70263E2,8.089873E2,8.235051E2,2.3119673E1,6.759824E0,2.2406259E0,9.131425E0,1.0034623E0,1.4760818E1,1.1348518E2,1.2868E2,1.4578038E1,4.116943E2,2.3106117E2,5.3321938E1,3.494118E1],"tree_param":{"num_deleted":"0","num_feature":"21","num_nodes":"125","size_leaf_vector":"1"}},{"base_weights":[-3.131211E-3,2.8290203E-1,-5.112057E-1,3.581356E-1,-1.1610519E-1,-2.1822208E-1,-6.343473E-1,5.8210415E-1,2.9676655E-1,-3.9903477E-2,-1.9479786E-1,2.180824E-2,-3.0230945E-1,-7.1229225E-1,-5.1621336E-1,1.2726307E-1,6.2882054E-1,3.3765802E-1,1.9847432E-1,3.9714985E-2,-1.1188375E-1,-2.6207986E-1,-5.539956E-2,2.1939686E-1,-1.0514623E-1,-3.2060698E-1,3.4143952E-1,-3.1758073E-1,-7.342771E-1,-2.9911286E-1,-5.386264E-1,3.031957E-1,-4.500694E-1,6.6938686E-1,4.7574824E-1,1.9724585E-1,3.739459E-1,2.738991E-1,-1.2104276E-3,7.472326E-2,-1.9270329E-1,4.270678E-2,-2.0166768E-1,-2.078999E-1,-3.1778196E-1,1.6769252E-3,-3.0264017E-1,1.7421608E-1,8.371544E-1,2.6050764E-1,-1.2656805E-1,-1.715109E-1,-3.723275E-1,-2.4051288E-1,6.353421E-1,-7.451989E-2,-4.411354E-1,-7.7894247E-1,-6.5640986E-1,-3.907499E-1,-1.0618977E-1,1.4434925E-1,-5.4135704E-1,2.0909479E-2,-1.7020052E-2,1.0891668E-3,-3.33775E-2,-1.7421545E-2,3.3730485E-2,2.742113E-2,-2.4807532E-3,1.3276452E-2,-6.1652805E-3,1.9210802E-2,7.708517E-4,7.227998E-3,1.729258E-2,4.6125734E-3,-8.357617E-3,1.5520297E-3,1.2318705E-2,-1.3176793E-2,2.2057702E-3,-1.607029E-2,3.480075E-3,3.3031132E-3,-1.096157E-2,-4.0566493E-3,-1.402061E-2,-1.7031988E-2,3.247798E-3,-2.3409107E-3,1.400712E-2,-3.4877285E-3,-2.3380687E-2,-1.1409293E-3,1.6348924E-2,4.0249457E-3,4.53929E-2,2.235232E-2,-1.0866419E-2,-2.783823E-2,-5.3379755E-3,4.7229775E-3,-1.03568E-2,-2.0692384E-2,-1.259463E-2,-2.3842724E-2,-4.827203E-4,-2.4711208E-3,4.044391E-2,6.8535875E-3,-1.6512133E-2,-1.6513286E-2,-2.7543789E-2,2.0137234E-2,-3.9115395E-2,-3.3585135E-2,1.7303338E-2,9.702857E-3,-2.1686858E-2,-2.0235859E-2,2.214814E-3,2.4789826E-3,1.9823126E-2,-2.9383117E-2,-2.463273E-2],"categories":[],"categories_nodes":[],"categories_segments":[],"categories_sizes":[],"default_left":[0,0,0,0,0,0,0,0,0,0,0,0,0,0,0,0,0,0,0,0,0,0,0,0,0,0,0,0,0,0,0,0,0,0,0,0,0,0,0,0,0,0,0,0,0,0,0,0,0,0,0,0,0,0,0,0,0,0,0,0,0,0,0,0,0,0,0,0,0,0,0,0,0,0,0,0,0,0,0,0,0,0,0,0,0,0,0,0,0,0,0,0,0,0,0,0,0,0,0,0,0,0,0,0,0,0,0,0,0,0,0,0,0,0,0,0,0,0,0,0,0,0,0,0,0,0,0],"id":1,"left_children":[1,3,5,7,9,11,13,15,17,19,21,23,25,27,29,31,33,35,37,39,41,43,45,47,49,51,53,55,57,59,61,63,65,67,69,71,73,75,77,79,81,83,85,87,89,91,93,95,97,99,101,103,105,107,109,111,113,115,117,119,121,123,125,-1,-1,-1,-1,-1,-1,-1,-1,-1,-1,-1,-1,-1,-1,-1,-1,-1,-1,-1,-1,-1,-1,-1,-1,-1,-1,-1,-1,-1,-1,-1,-1,-1,-1,-1,-1,-1,-1,-1,-1,-1,-1,-1,-1,-1,-1,-1,-1,-1,-1,-1,-1,-1,-1,-1,-1,-1,-1,-1,-1,-1,-1,-1,-1],"loss_changes":[3.6150427E3,4.77802E2,3.2312354E2,1.8388074E2,1.5136883E1,5.3553482E1,5.7715576E1,6.109442E1,4.2187378E1,7.365018E0,1.1636284E1,1.7311806E1,2.3252716E1,3.2723022E1,1.2057922E1,2.7500992E1,1.5892212E1,3.7747253E1,4.6555115E1,4.982251E0,9.374583E0,2.461647E0,5.7249866E0,7.3880987E0,3.3250375E0,1.4672485E1,9.523382E0,6.037483E0,1.1998047E1,4.1525917E0,4.320862E0,1.5468651E1,6.5129986E0,1.11922E1,2.1040253E1,3.3445004E1,2.1708801E1,2.082956E1,1.3174163E1,3.9765217E0,1.3570473E0,2.4582732E0,2.022602E0,3.9066772E0,3.6185684E0,4.4771805E0,2.8907146E0,7.616495E0,8.970318E-1,2.1995454E0,3.329558E0,4.70065E0,6.986252E0,1.0380478E0,4.3983555E0,3.7963805E0,1.4461002E0,9.383423E0,2.04292E1,4.118164E0,3.5117106E0,2.156584E-1,4.820862E0,0E0,0E0,0E0,0E0,0E0,0E0,0E0,0E0,0E0,0E0,0E0,0E0,0E0,0E0,0E0,0E0,0E0,0E0,0E0,0E0,0E0,0E0,0E0,0E0,0E0,0E0,0E0,0E0,0E0,0E0,0E0,0E0,0E0,0E0,0E0,0E0,0E0,0E0,0E0,0E0,0E0,0E0,0E0,0E0,0E0,0E0,0E0,0E0,0E0,0E0,0E0,0E0,0E0,0E0,0E0,0E0,0E0,0E0,0E0,0E0,0E0,0E0,0E0,0E0],"parents":[2147483647,0,0,1,1,2,2,3,3,4,4,5,5,6,6,7,7,8,8,9,9,10,10,11,11,12,12,13,13,14,14,15,15,16,16,17,17,18,18,19,19,20,20,21,21,22,22,23,23,24,24,25,25,26,26,27,27,28,28,29,29,30,30,31,31,32,32,33,33,34,34,35,35,36,36,37,37,38,38,39,39,40,40,41,41,42,42,43,43,44,44,45,45,46,46,47,47,48,48,49,49,50,50,51,51,52,52,53,53,54,54,55,55,56,56,57,57,58,58,59,59,60,60,61,61,62,62],"right_children":[2,4,6,8,10,12,14,16,18,20,22,24,26,28,30,32,34,36,38,40,42,44,46,48,50,52,54,56,58,60,62,64,66,68,70,72,74,76,78,80,82,84,86,88,90,92,94,96,98,100,102,104,106,108,110,112,114,116,118,120,122,124,126,-1,-1,-1,-1,-1,-1,-1,-1,-1,-1,-1,-1,-1,-1,-1,-1,-1,-1,-1,-1,-1,-1,-1,-1,-1,-1,-1,-1,-1,-1,-1,-1,-1,-1,-1,-1,-1,-1,-1,-1,-1,-1,-1,-1,-1,-1,-1,-1,-1,-1,-1,-1,-1,-1,-1,-1,-1,-1,-1,-1,-1,-1,-1,-1],"split_conditions":[-1.0063528E0,-5.3392196E-1,-5.7911426E-3,-2.8475845E0,-1.1091193E-2,-9.507784E-3,-1.1997977E-1,-3.222684E-2,-1.4221002E0,-8.068831E-1,-2.3488265E-1,-2.2100419E-1,1.7891529E0,-1.4229416E0,-8.871919E-1,-6.3431007E-1,-7.5654113E-1,-2.011355E-2,-8.02066E-3,-1.5442368E-1,1.0676014E0,9.221748E-1,2.2817388E0,1.7891529E0,-9.9869895E-1,-8.871919E-1,-6.59359E-2,-6.612892E-1,-2.3741913E-1,-7.0763394E-2,-1.4229416E0,-3.6647527E0,-1.0316318E0,-1.7216114E0,-1.8193351E0,4.784318E0,4.9493585E0,-7.762173E-1,-1.1482669E0,-8.273132E-2,-5.0766323E-2,-5.0682917E0,2.2108834E0,-1.734906E-1,-1.4487056E-2,-5.0875336E-2,-8.628143E-1,-5.2850866E-1,-1.5795267E0,-9.172667E-1,-1.0757278E-1,1.0543355E0,-5.361778E-1,-1.2000707E-1,-3.3671126E-2,2.4094458E-1,-1.9849674E-1,-1.03834E0,2.0040748E0,5.194172E-1,-8.406645E-1,1.3155537E0,-1.2710683E-1,2.0909479E-2,-1.7020052E-2,1.0891668E-3,-3.33775E-2,-1.7421545E-2,3.3730485E-2,2.742113E-2,-2.4807532E-3,1.3276452E-2,-6.1652805E-3,1.9210802E-2,7.708517E-4,7.227998E-3,1.729258E-2,4.6125734E-3,-8.357617E-3,1.5520297E-3,1.2318705E-2,-1.3176793E-2,2.2057702E-3,-1.607029E-2,3.480075E-3,3.3031132E-3,-1.096157E-2,-4.0566493E-3,-1.402061E-2,-1.7031988E-2,3.247798E-3,-2.3409107E-3,1.400712E-2,-3.4877285E-3,-2.3380687E-2,-1.1409293E-3,1.6348924E-2,4.0249457E-3,4.53929E-2,2.235232E-2,-1.0866419E-2,-2.783823E-2,-5.3379755E-3,4.7229775E-3,-1.03568E-2,-2.0692384E-2,-1.259463E-2,-2.3842724E-2,-4.827203E-4,-2.4711208E-3,4.044391E-2,6.8535875E-3,-1.6512133E-2,-1.6513286E-2,-2.7543789E-2,2.0137234E-2,-3.9115395E-2,-3.3585135E-2,1.7303338E-2,9.702857E-3,-2.1686858E-2,-2.0235859E-2,2.214814E-3,2.4789826E-3,1.9823126E-2,-2.9383117E-2,-2.463273E-2],"split_indices":[3,13,20,3,20,20,10,20,3,12,7,18,13,12,3,12,12,20,20,18,10,10,10,13,13,3,7,0,10,6,12,5,6,12,13,10,11,12,3,7,6,15,11,18,6,9,12,12,2,3,10,11,12,18,6,11,7,2,13,11,13,13,6,0,0,0,0,0,0,0,0,0,0,0,0,0,0,0,0,0,0,0,0,0,0,0,0,0,0,0,0,0,0,0,0,0,0,0,0,0,0,0,0,0,0,0,0,0,0,0,0,0,0,0,0,0,0,0,0,0,0,0,0,0,0,0,0],"split_type":[0,0,0,0,0,0,0,0,0,0,0,0,0,0,0,0,0,0,0,0,0,0,0,0,0,0,0,0,0,0,0,0,0,0,0,0,0,0,0,0,0,0,0,0,0,0,0,0,0,0,0,0,0,0,0,0,0,0,0,0,0,0,0,0,0,0,0,0,0,0,0,0,0,0,0,0,0,0,0,0,0,0,0,0,0,0,0,0,0,0,0,0,0,0,0,0,0,0,0,0,0,0,0,0,0,0,0,0,0,0,0,0,0,0,0,0,0,0,0,0,0,0,0,0,0,0,0],"sum_hessian":[2.4873375E4,1.5914405E4,8.95897E3,1.338983E4,2.5245754E3,2.652E3,6.30697E3,2.8779963E3,1.0511833E4,1.283353E3,1.2412224E3,6.8821295E2,1.963787E3,3.796805E3,2.5101653E3,2.6841125E2,2.6095852E3,7.4217886E3,3.090045E3,6.09559E2,6.7379407E2,8.365655E2,4.0465698E2,2.689297E2,4.1928326E2,1.9100002E3,5.3786716E1,2.0113422E2,3.5956707E3,2.3623665E2,2.2739287E3,2.0608505E2,6.2326206E1,2.0602236E3,5.493615E2,1.5254918E3,5.8962964E3,2.2425999E3,8.4744507E2,5.3035254E2,7.9206474E1,2.4774666E2,4.260474E2,4.2647586E2,4.1008963E2,3.2956808E2,7.508889E1,2.5179614E2,1.7133537E1,2.2586597E1,3.9669666E2,4.9303418E2,1.4169661E3,1.8109673E1,3.5677044E1,6.832539E1,1.3280882E2,2.2792637E3,1.316407E3,1.5946603E2,7.6770615E1,8.84883E0,2.2650798E3,1.75142E2,3.0943058E1,1.9947443E1,4.2378765E1,1.0182295E1,2.0500415E3,4.8256378E2,6.679771E1,1.2577421E3,2.6774988E2,5.73203E3,1.6426668E2,8.027016E2,1.4398982E3,5.4239886E2,3.0504614E2,4.2370624E2,1.0664629E2,6.088341E1,1.8323067E1,1.6287588E1,2.3145908E2,2.6059023E1,3.9998837E2,1.55954E2,2.7052185E2,3.8708234E2,2.300728E1,2.8139468E2,4.8173397E1,3.1725828E1,4.3363064E1,1.1033519E2,1.4146095E2,1.6469342E0,1.5486604E1,1.6291227E1,6.295371E0,1.626876E1,3.804279E2,5.804314E1,4.3499103E2,1.051889E3,3.6507703E2,8.422035E0,9.687637E0,7.357988E0,2.8319057E1,3.7642773E1,3.0682621E1,6.805898E1,6.474984E1,6.135947E0,2.2731277E3,1.2969519E3,1.9455137E1,1.0678558E1,1.4878748E2,2.5163332E1,5.1607277E1,7.3010244E0,1.5478053E0,1.1554425E3,1.1096375E3],"tree_param":{"num_deleted":"0","num_feature":"21","num_nodes":"127","size_leaf_vector":"1"}},{"base_weights":[-1.5514118E-3,2.7276653E-1,-5.325943E-1,3.3596677E-1,-1.4065382E-1,-9.040553E-2,-6.119769E-1,5.4492015E-1,2.595834E-1,-6.7538224E-2,-2.5166783E-1,1.6233498E-1,-2.198412E-1,-7.0122236E-1,-5.050382E-1,6.4256227E-1,4.1005456E-1,2.8237796E-1,3.3933163E-2,-1.600402E-1,1.5551707E-2,9.7547665E-2,-2.7768603E-1,1.2306764E-1,6.671469E-1,-2.4882299E-1,4.8600116E-1,-1.8158543E-1,-7.2510266E-1,1.977318E-1,-5.125953E-1,5.8068234E-1,8.3645844E-1,-1.8385956E-1,4.2326027E-1,4.1566068E-1,2.3028426E-1,-2.0858929E-1,1.9618902E-1,1.298799E-1,-2.0508258E-1,-1.0898289E-2,2.7247566E-1,-2.4673049E-1,4.9250504E-1,-1.3446982E-1,-3.0715987E-1,-7.977578E-2,1.9982703E-1,2.4260621E-1,8.276738E-1,-2.545765E-2,-2.9013687E-1,7.768372E-1,3.9427076E-2,3.8228914E-2,-5.730195E-1,-7.808323E-1,-6.566068E-1,-2.6430694E-2,3.4121606E-2,-4.593802E-1,-5.880736E-1,1.8880755E-2,3.0888855E-2,3.5536755E-2,4.512223E-2,-2.6920626E-2,8.554302E-4,2.747845E-2,1.798961E-2,1.8555662E-2,3.4185123E-2,-5.5036535E-3,1.2411526E-2,-3.7662182E-2,-7.984702E-3,1.7621567E-2,-8.593714E-5,1.5320002E-2,-5.946746E-3,-2.102113E-2,-8.824687E-3,-1.6599827E-2,1.5835083E-4,-3.0747483E-2,1.6423967E-2,-1.6477343E-2,1.2578157E-2,-2.813214E-2,3.03522E-2,-1.2067344E-2,3.1205106E-3,-1.7288452E-2,-6.765168E-3,1.7415216E-2,-5.453491E-3,3.8143059E-3,1.7548196E-2,3.0791605E-2,-7.979538E-3,2.5839468E-3,4.3384295E-2,1.7866526E-2,-8.077397E-3,-1.865573E-2,-9.94422E-3,4.4520088E-2,4.0547587E-3,2.1906935E-2,-1.2379572E-2,8.185406E-3,-1.7376972E-2,-3.005124E-2,-5.8981325E-3,-2.9701069E-2,-3.9622445E-2,-3.3347324E-2,1.0316038E-2,1.3993348E-2,-1.0026669E-2,-2.5094455E-2,-1.9805027E-2,-1.395902E-2,-2.9947225E-2],"categories":[],"categories_nodes":[],"categories_segments":[],"categories_sizes":[],"default_left":[0,0,0,0,0,0,0,0,0,0,0,0,0,0,0,0,0,0,0,0,0,0,0,0,0,0,0,0,0,0,0,0,0,0,0,0,0,0,0,0,0,0,0,0,0,0,0,0,0,0,0,0,0,0,0,0,0,0,0,0,0,0,0,0,0,0,0,0,0,0,0,0,0,0,0,0,0,0,0,0,0,0,0,0,0,0,0,0,0,0,0,0,0,0,0,0,0,0,0,0,0,0,0,0,0,0,0,0,0,0,0,0,0,0,0,0,0,0,0,0,0,0,0,0,0],"id":2,"left_children":[1,3,5,7,9,11,13,15,17,19,21,23,25,27,29,31,33,35,37,39,41,43,45,47,49,51,53,55,57,59,61,63,65,67,69,71,73,75,77,79,81,83,85,87,89,91,93,95,97,99,101,103,105,107,109,111,113,115,117,119,-1,121,123,-1,-1,-1,-1,-1,-1,-1,-1,-1,-1,-1,-1,-1,-1,-1,-1,-1,-1,-1,-1,-1,-1,-1,-1,-1,-1,-1,-1,-1,-1,-1,-1,-1,-1,-1,-1,-1,-1,-1,-1,-1,-1,-1,-1,-1,-1,-1,-1,-1,-1,-1,-1,-1,-1,-1,-1,-1,-1,-1,-1,-1,-1],"loss_changes":[3.366158E3,3.981548E2,2.762234E2,2.1080237E2,1.6387959E1,3.926223E1,6.3328125E1,4.6315063E1,4.9782776E1,9.378708E0,7.3157196E0,7.9794264E0,1.6351269E1,4.4970825E1,1.624121E1,2.4109924E1,1.1749695E1,6.094983E1,3.5035843E1,7.5660667E0,4.376383E0,7.785421E0,3.1111374E0,5.9101453E0,1.7840748E0,7.0315666E0,4.0775824E0,1.3877175E1,1.2750732E1,3.6093252E0,1.1807556E1,1.1497131E1,3.454071E0,2.365375E0,1.1475311E1,2.923346E1,3.8653137E1,9.386056E0,1.6492435E1,3.4731765E0,3.0045815E0,2.6406457E0,3.18932E0,1.3530751E0,3.5542545E0,2.7345803E0,4.0576477E0,1.3501999E0,5.1063814E0,1.510186E0,5.984726E-1,6.3172026E0,4.799206E0,1.4370813E0,1.6566762E0,5.0938706E0,6.678791E-1,3.675171E0,1.4101624E1,1.3127036E0,0E0,4.557373E0,3.9959717E0,0E0,0E0,0E0,0E0,0E0,0E0,0E0,0E0,0E0,0E0,0E0,0E0,0E0,0E0,0E0,0E0,0E0,0E0,0E0,0E0,0E0,0E0,0E0,0E0,0E0,0E0,0E0,0E0,0E0,0E0,0E0,0E0,0E0,0E0,0E0,0E0,0E0,0E0,0E0,0E0,0E0,0E0,0E0,0E0,0E0,0E0,0E0,0E0,0E0,0E0,0E0,0E0,0E0,0E0,0E0,0E0,0E0,0E0,0E0,0E0,0E0,0E0],"parents":[2147483647,0,0,1,1,2,2,3,3,4,4,5,5,6,6,7,7,8,8,9,9,10,10,11,11,12,12,13,13,14,14,15,15,16,16,17,17,18,18,19,19,20,20,21,21,22,22,23,23,24,24,25,25,26,26,27,27,28,28,29,29,30,30,31,31,32,32,33,33,34,34,35,35,36,36,37,37,38,38,39,39,40,40,41,41,42,42,43,43,44,44,45,45,46,46,47,47,48,48,49,49,50,50,51,51,52,52,53,53,54,54,55,55,56,56,57,57,58,58,59,59,61,61,62,62],"right_children":[2,4,6,8,10,12,14,16,18,20,22,24,26,28,30,32,34,36,38,40,42,44,46,48,50,52,54,56,58,60,62,64,66,68,70,72,74,76,78,80,82,84,86,88,90,92,94,96,98,100,102,104,106,108,110,112,114,116,118,120,-1,122,124,-1,-1,-1,-1,-1,-1,-1,-1,-1,-1,-1,-1,-1,-1,-1,-1,-1,-1,-1,-1,-1,-1,-1,-1,-1,-1,-1,-1,-1,-1,-1,-1,-1,-1,-1,-1,-1,-1,-1,-1,-1,-1,-1,-1,-1,-1,-1,-1,-1,-1,-1,-1,-1,-1,-1,-1,-1,-1,-1,-1,-1,-1],"split_conditions":[-1.0269636E0,-5.3392196E-1,-2.829995E-1,-3.512271E0,-3.609983E-1,-3.9366472E-1,-1.1587681E-1,-2.6841748E0,-1.9049915E0,-2.300929E0,-1.365015E0,1.559797E0,1.7891529E0,-1.6176037E0,-1.4229416E0,-2.9724996E0,1.3343544E0,-1.611637E0,1.181721E0,-1.0290375E0,-6.8530366E-2,3.1357257E0,-1.1187963E-2,-1.8344536E0,-1.6691883E0,-5.471114E-1,2.7331322E-1,-1.4335707E-1,-2.6276198E-1,1.1643188E0,-1.0758371E0,-3.3053486E0,5.3260083E0,-5.1136386E-1,-1.3796786E0,-2.06933E-1,-6.907963E-1,-2.9511185E0,-8.694406E-1,-6.540244E-2,-7.39513E-1,-5.0682917E0,-3.4863392E-1,-5.225169E-1,-2.238155E0,2.5641754E-1,-2.6891536E-1,1.623443E-1,-4.9314204E-1,-4.7689822E-1,1.6464562E0,-2.255178E0,-7.5874174E-1,-1.7893832E0,-3.4296313E-1,-1.6699405E-1,-2.4948744E-1,-1.5709636E-1,2.0040748E0,2.640071E-2,3.4121606E-2,2.2348838E-1,-8.7703866E-1,1.8880755E-2,3.0888855E-2,3.5536755E-2,4.512223E-2,-2.6920626E-2,8.554302E-4,2.747845E-2,1.798961E-2,1.8555662E-2,3.4185123E-2,-5.5036535E-3,1.2411526E-2,-3.7662182E-2,-7.984702E-3,1.7621567E-2,-8.593714E-5,1.5320002E-2,-5.946746E-3,-2.102113E-2,-8.824687E-3,-1.6599827E-2,1.5835083E-4,-3.0747483E-2,1.6423967E-2,-1.6477343E-2,1.2578157E-2,-2.813214E-2,3.03522E-2,-1.2067344E-2,3.1205106E-3,-1.7288452E-2,-6.765168E-3,1.7415216E-2,-5.453491E-3,3.8143059E-3,1.7548196E-2,3.0791605E-2,-7.979538E-3,2.5839468E-3,4.3384295E-2,1.7866526E-2,-8.077397E-3,-1.865573E-2,-9.94422E-3,4.4520088E-2,4.0547587E-3,2.1906935E-2,-1.2379572E-2,8.185406E-3,-1.7376972E-2,-3.005124E-2,-5.8981325E-3,-2.9701069E-2,-3.9622445E-2,-3.3347324E-2,1.0316038E-2,1.3993348E-2,-1.0026669E-2,-2.5094455E-2,-1.9805027E-2,-1.395902E-2,-2.9947225E-2],"split_indices":[3,13,17,14,17,17,10,3,14,2,12,13,13,12,12,8,11,13,10,12,9,11,19,2,2,13,10,2,10,13,14,13,10,17,13,9,17,13,12,13,17,15,18,9,8,13,9,10,12,17,11,14,4,14,17,3,11,17,13,13,0,10,3,0,0,0,0,0,0,0,0,0,0,0,0,0,0,0,0,0,0,0,0,0,0,0,0,0,0,0,0,0,0,0,0,0,0,0,0,0,0,0,0,0,0,0,0,0,0,0,0,0,0,0,0,0,0,0,0,0,0,0,0,0,0],"split_type":[0,0,0,0,0,0,0,0,0,0,0,0,0,0,0,0,0,0,0,0,0,0,0,0,0,0,0,0,0,0,0,0,0,0,0,0,0,0,0,0,0,0,0,0,0,0,0,0,0,0,0,0,0,0,0,0,0,0,0,0,0,0,0,0,0,0,0,0,0,0,0,0,0,0,0,0,0,0,0,0,0,0,0,0,0,0,0,0,0,0,0,0,0,0,0,0,0,0,0,0,0,0,0,0,0,0,0,0,0,0,0,0,0,0,0,0,0,0,0,0,0,0,0,0,0],"sum_hessian":[2.3105383E4,1.5235664E4,7.869718E3,1.3215566E4,2.0200975E3,1.1980884E3,6.6716294E3,3.5361055E3,9.679461E3,1.2189115E3,8.0118604E2,4.0568326E2,7.924051E2,3.633634E3,3.0379954E3,2.0489265E3,1.487179E3,8.791152E3,8.8830896E2,5.763496E2,6.425619E2,5.5362522E1,7.458235E2,3.7755826E2,2.812499E1,7.617743E2,3.0630854E1,1.6002759E2,3.4736064E3,3.205324E1,3.0059421E3,1.5562582E3,4.926683E2,3.2067173E1,1.4551118E3,2.4684915E3,6.322661E3,3.5596518E2,5.3234375E2,7.724842E1,4.9910117E2,5.834537E2,5.9108234E1,2.97795E1,2.5583025E1,1.2824263E2,6.175809E2,1.0364033E2,2.7391794E2,8.40578E0,1.971921E1,1.1915793E2,6.4261633E2,1.8102114E1,1.252874E1,1.03057045E2,5.6970543E1,1.9095542E3,1.5640522E3,2.2563583E1,9.489656E0,1.7671324E3,1.2388096E3,2.4210217E2,1.314156E3,1.7362724E2,3.1904105E2,1.0993347E1,2.1073824E1,4.840795E2,9.710323E2,2.1187485E3,3.4974286E2,3.1642435E2,6.006237E3,2.813693E1,3.2782825E2,2.9705038E2,2.3529335E2,4.505383E1,3.2194595E1,5.6889084E1,4.4221207E2,2.353634E1,5.599173E2,2.9163084E0,5.6191925E1,2.5825888E1,3.9536114E0,2.1220627E0,2.3460962E1,8.297402E1,4.526862E1,5.0346155E2,1.14119316E2,5.9405065E0,9.769982E1,1.5154675E2,1.2237118E2,4.0844088E0,4.3213706E0,1.0792781E0,1.8639933E1,3.0826094E1,8.833183E1,3.3495038E2,3.0766595E2,1.5321441E1,2.7806735E0,5.0236382E0,7.505102E0,7.819736E1,2.485969E1,5.336553E1,3.6050172E0,1.14843346E2,1.7947109E3,1.5457579E3,1.8294312E1,7.9571466E0,1.4606437E1,1.052902E3,7.1423047E2,4.3022392E1,1.1957872E3],"tree_param":{"num_deleted":"0","num_feature":"21","num_nodes":"125","size_leaf_vector":"1"}},{"base_weights":[-1.7658816E-4,2.5201485E-1,-5.510886E-1,3.4011993E-1,-1.3556474E-1,-6.25455E-1,-1.762754E-1,5.3164744E-1,2.571253E-1,-1.6092658E-1,5.854539E-1,-7.006877E-1,-5.18086E-1,4.7613937E-2,-3.3267337E-1,5.835082E-1,3.37792E-1,3.666103E-1,1.8625112E-1,-4.314082E-2,-2.9088852E-1,8.4734404E-1,3.1251624E-1,-2.0558819E-1,-7.1532863E-1,2.6086453E-1,-5.2642417E-1,2.1701604E-1,-1.8388738E-1,1.691836E-1,-4.070454E-1,5.3357774E-1,7.517188E-1,1.7812572E-1,4.0528503E-1,7.111249E-2,4.0354747E-1,2.6567876E-1,1.038765E-1,-7.6095946E-2,1.7955665E-1,2.2568555E-1,-3.2509938E-1,4.5151126E-2,3.056486E-1,-2.1168777E-1,7.691453E-1,9.663703E-2,-5.6339103E-1,-7.5796014E-1,-6.4092267E-1,7.3514916E-2,3.3119645E-2,-2.9145208E-1,-5.553205E-1,-2.0346151E-1,3.516793E-1,2.0959172E-1,-2.3166017E-1,-2.0173699E-1,4.6869808E-1,-2.7687415E-1,-4.638573E-1,2.7287954E-2,-9.985863E-3,3.9833736E-2,1.7015653E-2,3.4089528E-2,3.7877548E-3,1.7051434E-2,3.9341684E-2,8.192594E-3,-2.8162733E-2,-2.0599654E-2,2.0787833E-2,-9.079077E-3,1.4217344E-2,7.3796767E-3,-2.394206E-4,6.6886836E-4,-7.578691E-3,1.4878537E-2,1.2850972E-3,2.5519148E-2,-9.355366E-3,-7.137631E-3,-1.8004522E-2,-7.037263E-3,2.4072098E-2,-1.8868266E-2,8.316345E-3,4.3693412E-2,-1.2839235E-2,1.023941E-2,-1.9888597E-2,-3.8518866E-3,-2.8658403E-2,-5.113542E-3,-3.800872E-2,-3.2649178E-2,8.549435E-3,2.2489686E-2,-6.7641074E-3,-2.1978373E-2,-9.074293E-3,-2.4396203E-2,-2.9214984E-2,-1.4130865E-2,7.150899E-3,2.1390082E-2,-1.1904593E-2,-7.530966E-5,3.4569208E-2,-9.29656E-3,-2.9109303E-2,-2.750214E-3,-1.7500889E-2,3.125398E-2,-1.2378626E-3,-1.648054E-2,-2.5095444E-3,6.4084874E-3,-2.3557385E-2],"categories":[],"categories_nodes":[],"categories_segments":[],"categories_sizes":[],"default_left":[0,0,0,0,0,0,0,0,0,0,0,0,0,0,0,0,0,0,0,0,0,0,0,0,0,0,0,0,0,0,0,0,0,0,0,0,0,0,0,0,0,0,0,0,0,0,0,0,0,0,0,0,0,0,0,0,0,0,0,0,0,0,0,0,0,0,0,0,0,0,0,0,0,0,0,0,0,0,0,0,0,0,0,0,0,0,0,0,0,0,0,0,0,0,0,0,0,0,0,0,0,0,0,0,0,0,0,0,0,0,0,0,0,0,0,0,0,0,0,0,0,0,0],"id":3,"left_children":[1,3,5,7,9,11,13,15,17,19,21,23,25,27,29,31,33,35,37,39,41,43,45,47,49,51,53,55,57,59,61,63,65,67,69,71,73,75,77,79,81,83,85,-1,87,89,91,93,95,97,99,101,-1,103,105,107,109,111,113,115,117,119,121,-1,-1,-1,-1,-1,-1,-1,-1,-1,-1,-1,-1,-1,-1,-1,-1,-1,-1,-1,-1,-1,-1,-1,-1,-1,-1,-1,-1,-1,-1,-1,-1,-1,-1,-1,-1,-1,-1,-1,-1,-1,-1,-1,-1,-1,-1,-1,-1,-1,-1,-1,-1,-1,-1,-1,-1,-1,-1,-1,-1],"loss_changes":[3.0707578E3,5.1777905E2,1.9334644E2,1.9623413E2,5.1458763E1,4.6414795E1,4.0300457E1,3.7341187E1,6.682605E1,4.1536102E1,6.5730324E0,2.4515137E1,1.5658997E1,1.8629435E1,2.5354042E1,2.4328613E1,8.445915E0,3.6935577E1,3.4225266E1,1.0471716E1,2.287519E1,1.1787758E0,1.1754635E1,1.07735E1,9.995117E0,1.9055839E0,1.5894653E1,1.5596458E1,3.8238382E0,9.886847E0,4.237053E0,2.0420776E1,1.2148468E1,1.2149558E1,1.3333771E1,2.2301086E1,3.0143127E1,2.2299957E1,1.2216915E1,8.389604E0,3.3330173E0,9.583117E0,7.672287E0,0E0,5.3917605E-1,1.5238572E0,3.0282717E0,3.0004013E0,1.7236805E-1,2.9642334E0,1.1960754E1,1.5409137E0,0E0,4.1725254E0,3.8256836E0,1.88187E0,9.441664E0,2.2659292E0,2.7701092E0,8.527167E-1,3.801772E0,2.157218E0,1.8277054E0,0E0,0E0,0E0,0E0,0E0,0E0,0E0,0E0,0E0,0E0,0E0,0E0,0E0,0E0,0E0,0E0,0E0,0E0,0E0,0E0,0E0,0E0,0E0,0E0,0E0,0E0,0E0,0E0,0E0,0E0,0E0,0E0,0E0,0E0,0E0,0E0,0E0,0E0,0E0,0E0,0E0,0E0,0E0,0E0,0E0,0E0,0E0,0E0,0E0,0E0,0E0,0E0,0E0,0E0,0E0,0E0,0E0,0E0,0E0,0E0],"parents":[2147483647,0,0,1,1,2,2,3,3,4,4,5,5,6,6,7,7,8,8,9,9,10,10,11,11,12,12,13,13,14,14,15,15,16,16,17,17,18,18,19,19,20,20,21,21,22,22,23,23,24,24,25,25,26,26,27,27,28,28,29,29,30,30,31,31,32,32,33,33,34,34,35,35,36,36,37,37,38,38,39,39,40,40,41,41,42,42,44,44,45,45,46,46,47,47,48,48,49,49,50,50,51,51,53,53,54,54,55,55,56,56,57,57,58,58,59,59,60,60,61,61,62,62],"right_children":[2,4,6,8,10,12,14,16,18,20,22,24,26,28,30,32,34,36,38,40,42,44,46,48,50,52,54,56,58,60,62,64,66,68,70,72,74,76,78,80,82,84,86,-1,88,90,92,94,96,98,100,102,-1,104,106,108,110,112,114,116,118,120,122,-1,-1,-1,-1,-1,-1,-1,-1,-1,-1,-1,-1,-1,-1,-1,-1,-1,-1,-1,-1,-1,-1,-1,-1,-1,-1,-1,-1,-1,-1,-1,-1,-1,-1,-1,-1,-1,-1,-1,-1,-1,-1,-1,-1,-1,-1,-1,-1,-1,-1,-1,-1,-1,-1,-1,-1,-1,-1,-1,-1],"split_conditions":[-1.871844E0,-5.3392196E-1,4.1873127E-1,-3.5729945E0,1.559797E0,-1.2402102E-1,-8.9053696E-1,-1.0992333E0,-1.611637E0,-3.68775E-1,2.828145E-1,-1.7216114E0,-1.4229416E0,-8.694406E-1,-3.9366472E-1,-3.847873E-1,-1.9461408E-2,-8.087291E-1,-4.2130595E-1,-3.5519995E-2,-1.365015E0,-2.8581384E-1,-5.089672E-1,-6.663189E-1,-2.4112158E-1,1.1643188E0,-2.6915786E-1,1.2126014E0,-9.507784E-3,-4.880865E-1,-1.8354866E-1,-1.6278284E-2,-1.461309E0,-2.8918937E-2,4.3610764E0,-5.1292753E-1,1.921857E-1,-6.907963E-1,-7.604704E-1,9.9212265E-1,-7.5654113E-1,-1.8433219E0,-1.1187963E-2,4.5151126E-2,-1.985728E-1,-2.9577956E-2,-1.1048156E-2,2.1688849E-1,-6.870793E-1,-9.899571E-1,2.0040748E0,-5.1350653E-1,3.3119645E-2,-1.2472308E0,-1.7702751E-1,-4.8518103E-2,-8.632589E-1,2.7448673E0,4.3085966E0,1.0170417E0,-9.835726E-3,-1.1367217E-1,-1.4229416E0,2.7287954E-2,-9.985863E-3,3.9833736E-2,1.7015653E-2,3.4089528E-2,3.7877548E-3,1.7051434E-2,3.9341684E-2,8.192594E-3,-2.8162733E-2,-2.0599654E-2,2.0787833E-2,-9.079077E-3,1.4217344E-2,7.3796767E-3,-2.394206E-4,6.6886836E-4,-7.578691E-3,1.4878537E-2,1.2850972E-3,2.5519148E-2,-9.355366E-3,-7.137631E-3,-1.8004522E-2,-7.037263E-3,2.4072098E-2,-1.8868266E-2,8.316345E-3,4.3693412E-2,-1.2839235E-2,1.023941E-2,-1.9888597E-2,-3.8518866E-3,-2.8658403E-2,-5.113542E-3,-3.800872E-2,-3.2649178E-2,8.549435E-3,2.2489686E-2,-6.7641074E-3,-2.1978373E-2,-9.074293E-3,-2.4396203E-2,-2.9214984E-2,-1.4130865E-2,7.150899E-3,2.1390082E-2,-1.1904593E-2,-7.530966E-5,3.4569208E-2,-9.29656E-3,-2.9109303E-2,-2.750214E-3,-1.7500889E-2,3.125398E-2,-1.2378626E-3,-1.648054E-2,-2.5095444E-3,6.4084874E-3,-2.3557385E-2],"split_indices":[14,13,10,14,13,10,13,13,13,17,10,12,12,12,17,17,20,17,17,6,12,17,12,0,10,13,17,10,20,6,13,6,13,20,10,12,10,17,13,10,12,0,19,0,17,7,19,11,9,6,13,7,0,4,17,7,14,11,11,10,20,17,12,0,0,0,0,0,0,0,0,0,0,0,0,0,0,0,0,0,0,0,0,0,0,0,0,0,0,0,0,0,0,0,0,0,0,0,0,0,0,0,0,0,0,0,0,0,0,0,0,0,0,0,0,0,0,0,0,0,0,0,0],"split_type":[0,0,0,0,0,0,0,0,0,0,0,0,0,0,0,0,0,0,0,0,0,0,0,0,0,0,0,0,0,0,0,0,0,0,0,0,0,0,0,0,0,0,0,0,0,0,0,0,0,0,0,0,0,0,0,0,0,0,0,0,0,0,0,0,0,0,0,0,0,0,0,0,0,0,0,0,0,0,0,0,0,0,0,0,0,0,0,0,0,0,0,0,0,0,0,0,0,0,0,0,0,0,0,0,0,0,0,0,0,0,0,0,0,0,0,0,0,0,0,0,0,0,0],"sum_hessian":[2.2100072E4,1.5160556E4,6.939517E3,1.2352656E4,2.8079E3,5.790049E3,1.1494684E3,3.7328706E3,8.619785E3,2.7132385E3,9.466136E1,3.4012754E3,2.3887734E3,4.7301944E2,6.764489E2,2.9434275E3,7.8944324E2,3.3856025E3,5.234183E3,1.4239923E3,1.2892462E3,4.7234356E1,4.742701E1,9.812474E1,3.3031506E3,2.4978716E1,2.3637947E3,2.731808E2,1.9983867E2,8.7142555E1,5.893064E2,2.272922E3,6.705054E2,2.3563873E2,5.538045E2,3.765027E2,3.0090999E3,2.6636248E3,2.5705583E3,1.2410048E3,1.8298756E2,7.973123E1,1.209515E3,4.2227005E1,5.0073524E0,2.2329477E1,2.509753E1,5.358935E1,4.453539E1,2.094121E3,1.2090295E3,1.783851E1,7.1402054E0,2.600744E2,2.1037202E3,6.614288E1,2.0703789E2,2.1269108E1,1.7856956E2,3.907647E1,4.806609E1,1.8083607E2,4.084703E2,2.2360334E3,3.6888626E1,6.0361005E2,6.689532E1,3.8847668E1,1.9679106E2,4.7560242E2,7.820207E1,3.2912845E2,4.7374237E1,4.3900852E1,2.965199E3,1.0637247E2,2.5572522E3,1.8328324E3,7.377258E2,5.6823175E2,6.72773E2,1.0302685E2,7.9960724E1,4.7047096E1,3.268413E1,1.9554787E2,1.0139671E3,1.4711126E0,3.5362396E0,1.5526284E1,6.8031936E0,2.2907446E1,2.1900835E0,4.4451458E1,9.137894E0,1.0526222E0,4.348277E1,7.2068872E0,2.086914E3,1.1915253E3,1.7504295E1,5.9541545E0,1.1884356E1,1.0953823E2,1.5053615E2,6.37931E2,1.4657892E3,5.399227E1,1.2150612E1,1.8361337E2,2.3424524E1,1.5482366E1,5.786742E0,1.5931592E2,1.9253637E1,2.032983E1,1.874664E1,3.6296562E1,1.1769525E1,1.463374E2,3.449868E1,4.7671356E0,4.0370316E2],"tree_param":{"num_deleted":"0","num_feature":"21","num_nodes":"123","size_leaf_vector":"1"}},{"base_weights":[1.2321514E-4,2.7312908E-1,-5.0590813E-1,4.435907E-1,1.6955322E-1,-1.847149E-1,-6.223933E-1,5.414643E-1,3.24602E-1,2.2687453E-1,5.1029928E-2,8.400758E-2,-3.253475E-1,-4.691363E-1,-6.7013115E-1,4.8734373E-1,6.6788906E-1,1.2621133E-1,3.6246172E-1,2.679896E-1,6.299769E-2,-1.6754003E-1,1.10423006E-1,-1.0241164E-1,3.4638944E-1,-1.901222E-1,-3.9857554E-1,1.9588348E-2,-5.1946783E-1,-7.441572E-1,-6.0137296E-1,-6.646275E-1,4.944486E-1,5.457139E-1,7.488096E-1,1.5631194E-1,-4.169632E-2,3.6985597E-1,-3.9990816E-1,2.320194E-1,3.9385203E-1,1.713673E-1,-1.0146396E-1,8.665295E-2,-2.0446527E-1,-2.0995642E-1,1.5015084E-1,-1.9835964E-1,-1.2984544E-2,4.3286905E-1,9.758945E-2,-3.1710553E-1,2.216572E-2,-4.166889E-1,-7.3186845E-2,1.2604648E-1,-4.345731E-1,1.8773103E-1,-5.266601E-1,-6.939169E-2,-7.461563E-1,-5.1418674E-1,-6.2254804E-1,-3.9816465E-2,1.204032E-2,2.2590773E-2,2.9460682E-2,3.0060241E-2,2.8932507E-3,3.849539E-2,6.140608E-3,1.4163971E-2,-5.962354E-3,1.5008799E-2,2.3696847E-2,1.1344406E-2,-2.955822E-2,1.5603626E-2,8.972486E-3,2.1803135E-2,1.2177514E-2,-2.5868224E-4,1.4654604E-2,1.1290348E-4,-1.2882339E-2,1.0348119E-2,-1.7747972E-2,-1.608391E-2,-7.3933452E-3,-7.6083825E-3,-1.7682293E-2,8.905103E-3,-1.2257587E-2,-1.1652433E-2,5.825515E-4,-4.3238155E-3,6.4162808E-3,1.2063758E-2,2.828377E-2,1.2163278E-2,-1.8928645E-2,1.29505E-2,-1.6811697E-2,-1.3269754E-2,9.273294E-3,-2.601045E-4,-2.1288205E-2,6.3404585E-3,-1.262248E-2,9.545653E-3,-1.4756361E-2,2.69409E-3,-2.3723608E-2,2.3258418E-2,-1.3879548E-2,-3.4940895E-2,-2.5299449E-2,1.0205604E-2,-1.0521864E-2,-3.8391627E-2,-3.5510004E-2,-1.6064178E-2,-2.6431024E-2,-2.8822297E-2,-3.2577198E-2],"categories":[],"categories_nodes":[],"categories_segments":[],"categories_sizes":[],"default_left":[0,0,0,0,0,0,0,0,0,0,0,0,0,0,0,0,0,0,0,0,0,0,0,0,0,0,0,0,0,0,0,0,0,0,0,0,0,0,0,0,0,0,0,0,0,0,0,0,0,0,0,0,0,0,0,0,0,0,0,0,0,0,0,0,0,0,0,0,0,0,0,0,0,0,0,0,0,0,0,0,0,0,0,0,0,0,0,0,0,0,0,0,0,0,0,0,0,0,0,0,0,0,0,0,0,0,0,0,0,0,0,0,0,0,0,0,0,0,0,0,0,0,0,0,0],"id":4,"left_children":[1,3,5,7,9,11,13,15,17,19,21,23,25,27,29,31,33,35,37,39,41,43,45,47,49,51,53,55,57,59,61,63,65,67,69,71,-1,73,75,77,79,81,83,85,87,89,91,93,95,97,99,101,103,105,107,109,111,113,115,117,119,121,123,-1,-1,-1,-1,-1,-1,-1,-1,-1,-1,-1,-1,-1,-1,-1,-1,-1,-1,-1,-1,-1,-1,-1,-1,-1,-1,-1,-1,-1,-1,-1,-1,-1,-1,-1,-1,-1,-1,-1,-1,-1,-1,-1,-1,-1,-1,-1,-1,-1,-1,-1,-1,-1,-1,-1,-1,-1,-1,-1,-1,-1,-1],"loss_changes":[2.9453943E3,2.4443579E2,2.7942566E2,6.077539E1,5.8525543E1,7.52284E1,3.979712E1,1.9312561E1,1.7714523E1,3.9110687E1,3.6495945E1,3.3512665E1,1.2861465E1,3.2122955E1,2.0818726E1,1.6808289E1,8.070679E0,1.1125963E1,1.1338196E1,2.0924866E1,2.0799427E1,5.6569614E0,2.8162146E1,3.4373288E0,6.079479E0,1.2430765E1,4.959366E0,5.9948115E0,6.119293E0,2.656372E0,3.6885986E0,1.7144146E0,7.8210144E0,9.315887E0,6.684204E0,1.2969828E1,0E0,1.4119904E1,2.4776478E0,1.5147827E1,6.430786E0,1.511417E1,7.5137353E0,4.159603E0,3.434637E0,1.9743042E0,2.1776283E1,1.4111447E0,2.1771626E0,5.228325E0,5.2721395E0,3.2657585E0,8.193318E0,2.9918213E0,1.6760505E0,2.7966144E0,4.846177E-1,1.7626932E0,3.8171387E0,3.1426904E-1,1.0148926E0,1.0275497E0,1.9534302E0,0E0,0E0,0E0,0E0,0E0,0E0,0E0,0E0,0E0,0E0,0E0,0E0,0E0,0E0,0E0,0E0,0E0,0E0,0E0,0E0,0E0,0E0,0E0,0E0,0E0,0E0,0E0,0E0,0E0,0E0,0E0,0E0,0E0,0E0,0E0,0E0,0E0,0E0,0E0,0E0,0E0,0E0,0E0,0E0,0E0,0E0,0E0,0E0,0E0,0E0,0E0,0E0,0E0,0E0,0E0,0E0,0E0,0E0,0E0,0E0,0E0,0E0],"parents":[2147483647,0,0,1,1,2,2,3,3,4,4,5,5,6,6,7,7,8,8,9,9,10,10,11,11,12,12,13,13,14,14,15,15,16,16,17,17,18,18,19,19,20,20,21,21,22,22,23,23,24,24,25,25,26,26,27,27,28,28,29,29,30,30,31,31,32,32,33,33,34,34,35,35,37,37,38,38,39,39,40,40,41,41,42,42,43,43,44,44,45,45,46,46,47,47,48,48,49,49,50,50,51,51,52,52,53,53,54,54,55,55,56,56,57,57,58,58,59,59,60,60,61,61,62,62],"right_children":[2,4,6,8,10,12,14,16,18,20,22,24,26,28,30,32,34,36,38,40,42,44,46,48,50,52,54,56,58,60,62,64,66,68,70,72,-1,74,76,78,80,82,84,86,88,90,92,94,96,98,100,102,104,106,108,110,112,114,116,118,120,122,124,-1,-1,-1,-1,-1,-1,-1,-1,-1,-1,-1,-1,-1,-1,-1,-1,-1,-1,-1,-1,-1,-1,-1,-1,-1,-1,-1,-1,-1,-1,-1,-1,-1,-1,-1,-1,-1,-1,-1,-1,-1,-1,-1,-1,-1,-1,-1,-1,-1,-1,-1,-1,-1,-1,-1,-1,-1,-1,-1,-1,-1,-1],"split_conditions":[-1.0691689E0,-2.2033393E0,-1.5677137E0,-3.636716E0,-1.4221002E0,-9.835726E-3,-6.0828507E-1,5.3260083E0,-3.5849712E0,2.2817388E0,-9.338046E-1,-5.214647E-1,-2.092702E0,-1.4229416E0,-2.4112158E-1,-1.7216114E0,-1.6520364E-2,7.192633E-2,-6.9162005E-1,-5.0766323E-2,-1.9046026E0,-3.0791206E0,-1.2553663E0,-3.772805E-1,-1.3605092E0,-8.127642E-2,-3.064216E-2,-1.841491E-1,-9.838274E-3,-9.899571E-1,-1.0623543E0,-8.096677E-3,-1.4497716E-2,-3.789693E0,-2.1395519E0,-2.7766532E-1,-4.169632E-2,-9.72905E-3,3.8933089E0,-1.7223624E0,-2.0116722E-2,-2.5358658E0,3.1752033E0,-2.3488265E-1,-1.4313576E0,-2.128541E0,-1.871844E0,-1.6402503E0,-6.799547E-1,-8.2974654E-1,-7.584138E-1,-1.4946978E0,-1.0983138E-1,-1.3412342E0,-1.871844E0,-6.8090975E-1,-1.1780287E0,-1.528704E0,-1.1997977E-1,-5.1817054E-1,-8.503533E-1,-1.0316318E0,-8.4856737E-1,-3.9816465E-2,1.204032E-2,2.2590773E-2,2.9460682E-2,3.0060241E-2,2.8932507E-3,3.849539E-2,6.140608E-3,1.4163971E-2,-5.962354E-3,1.5008799E-2,2.3696847E-2,1.1344406E-2,-2.955822E-2,1.5603626E-2,8.972486E-3,2.1803135E-2,1.2177514E-2,-2.5868224E-4,1.4654604E-2,1.1290348E-4,-1.2882339E-2,1.0348119E-2,-1.7747972E-2,-1.608391E-2,-7.3933452E-3,-7.6083825E-3,-1.7682293E-2,8.905103E-3,-1.2257587E-2,-1.1652433E-2,5.825515E-4,-4.3238155E-3,6.4162808E-3,1.2063758E-2,2.828377E-2,1.2163278E-2,-1.8928645E-2,1.29505E-2,-1.6811697E-2,-1.3269754E-2,9.273294E-3,-2.601045E-4,-2.1288205E-2,6.3404585E-3,-1.262248E-2,9.545653E-3,-1.4756361E-2,2.69409E-3,-2.3723608E-2,2.3258418E-2,-1.3879548E-2,-3.4940895E-2,-2.5299449E-2,1.0205604E-2,-1.0521864E-2,-3.8391627E-2,-3.5510004E-2,-1.6064178E-2,-2.6431024E-2,-2.8822297E-2,-3.2577198E-2],"split_indices":[3,3,14,14,3,20,0,10,9,10,12,12,14,12,10,12,19,7,14,6,3,15,0,6,9,6,9,3,19,6,14,20,20,14,2,6,0,19,11,3,6,2,11,7,2,14,14,16,12,3,3,12,7,12,14,0,15,16,10,3,12,6,12,0,0,0,0,0,0,0,0,0,0,0,0,0,0,0,0,0,0,0,0,0,0,0,0,0,0,0,0,0,0,0,0,0,0,0,0,0,0,0,0,0,0,0,0,0,0,0,0,0,0,0,0,0,0,0,0,0,0,0,0,0,0],"split_type":[0,0,0,0,0,0,0,0,0,0,0,0,0,0,0,0,0,0,0,0,0,0,0,0,0,0,0,0,0,0,0,0,0,0,0,0,0,0,0,0,0,0,0,0,0,0,0,0,0,0,0,0,0,0,0,0,0,0,0,0,0,0,0,0,0,0,0,0,0,0,0,0,0,0,0,0,0,0,0,0,0,0,0,0,0,0,0,0,0,0,0,0,0,0,0,0,0,0,0,0,0,0,0,0,0,0,0,0,0,0,0,0,0,0,0,0,0,0,0,0,0,0,0,0,0],"sum_hessian":[2.1318336E4,1.3847835E4,7.4705005E3,5.2327197E3,8.615115E3,1.9889127E3,5.481588E3,2.869157E3,2.3635627E3,5.806169E3,2.8089465E3,6.834228E2,1.3054899E3,1.304491E3,4.177097E3,2.012493E3,8.5666406E2,3.794612E2,1.9841016E3,4.641122E3,1.1650469E3,5.998057E2,2.2091406E3,3.9990482E2,2.8351797E2,4.5987183E2,8.4561804E2,1.2185698E2,1.182634E3,2.0067643E3,2.1703328E3,1.1768877E1,2.0007241E3,3.444106E2,5.122534E2,3.6873834E2,1.0722863E1,1.9655525E3,1.8549093E1,3.611761E3,1.0293615E3,7.022605E2,4.6278638E2,7.590815E1,5.238976E2,2.4324452E2,1.9658961E3,1.923311E2,2.0757373E2,2.0984041E2,7.367758E1,2.8744086E2,1.7243095E2,8.007616E2,4.485644E1,9.9302376E1,2.2554602E1,1.1653727E1,1.1709803E3,6.0332017E0,2.0007311E3,4.2904846E2,1.7412843E3,1.0379592E1,1.3892856E0,1.3838993E3,6.168248E2,3.0902756E2,3.5383064E1,4.9532922E2,1.6924196E1,2.5240936E2,1.1632898E2,1.1796715E3,7.858809E2,4.2931204E0,1.4255973E1,1.4296912E3,2.1820698E3,8.0217706E2,2.2718434E2,2.869892E2,4.1527127E2,2.7869125E2,1.8409512E2,6.0073532E1,1.5834616E1,1.6907228E2,3.5482532E2,1.749446E2,6.829993E1,1.8365836E3,1.2931253E2,1.6497179E2,2.7359314E1,1.3681027E2,7.076346E1,8.7059814E1,1.22780594E2,5.67919E1,1.6885681E1,8.8340435E0,2.786068E2,6.222741E1,1.1020355E2,1.7313353E1,7.8344824E2,2.1340424E1,2.3516018E1,8.65233E1,1.2779076E1,1.676762E0,2.087784E1,7.3010044E0,4.3527226E0,1.22011665E2,1.0489686E3,1.9005936E0,4.132608E0,1.2355332E3,7.651978E2,3.1487335E1,3.9756113E2,6.803862E2,1.0608981E3],"tree_param":{"num_deleted":"0","num_feature":"21","num_nodes":"125","size_leaf_vector":"1"}},{"base_weights":[1.529633E-4,2.3364215E-1,-5.371965E-1,4.2731997E-1,1.4598867E-1,-2.7915516E-1,-6.319029E-1,5.4961616E-1,3.415287E-1,1.0082933E-2,1.8885708E-1,7.6793835E-2,-3.6551434E-1,-7.033657E-1,-5.4391354E-1,4.9146655E-1,6.995752E-1,2.4151748E-1,3.8454586E-1,1.3920303E-1,-1.4930062E-1,1.6573797E-1,3.9506298E-1,2.4681164E-1,-1.9561993E-1,2.1881555E-1,-4.063293E-1,-7.296154E-1,-6.513669E-1,3.3133514E-3,-5.5304307E-1,5.192555E-1,2.2780249E-1,-3.1240692E-2,7.065644E-1,-6.0880345E-1,2.5544247E-1,3.105302E-1,4.4671983E-1,-2.503719E-2,2.1933661E-1,-1.8686914E-1,3.055134E-1,-6.187798E-2,1.7676833E-1,3.0039597E-1,7.394255E-1,2.855343E-1,-4.0886745E-1,1.7612065E-1,-2.7150962E-1,6.068673E-1,-1.450327E-1,1.191485E-1,-4.557672E-1,-5.170502E-1,-7.382985E-1,-6.62902E-1,-5.515924E-1,-2.84948E-1,3.995214E-1,-4.7395355E-1,-5.910179E-1,1.7803835E-2,2.8820977E-2,2.6687726E-2,-2.8980249E-3,2.8242765E-2,3.8383998E-2,-3.9604984E-2,-1.0740208E-3,-9.124817E-3,1.3714726E-2,2.8322933E-2,1.2700247E-2,2.406062E-2,1.0459688E-2,2.4235575E-2,-3.3717416E-3,1.2416606E-2,-1.7773494E-3,-1.6758438E-3,-1.296469E-2,1.9828266E-2,-4.9398025E-3,1.6989676E-2,-5.60113E-3,1.0831276E-2,5.685278E-3,1.0696364E-2,3.301713E-2,3.841565E-2,2.3316791E-2,8.322198E-3,2.5216628E-2,-3.1949025E-2,8.203379E-3,2.7933273E-2,-1.0417723E-2,-1.05627235E-2,-2.3805665E-2,-1.1284503E-2,3.5838746E-2,-9.711894E-3,8.4333075E-3,1.3587459E-2,-1.1189459E-3,-1.8781235E-2,-2.4747305E-2,-5.3373277E-3,-2.8621478E-2,-7.3205563E-3,-3.7000936E-2,-2.877408E-2,-3.378466E-2,-3.438437E-2,-2.3252117E-2,-4.6894015E-3,-2.1474374E-2,3.0597521E-2,-1.8071098E-2,-1.4839924E-2,-2.4574393E-2,-2.702394E-2,-3.1120328E-2],"categories":[],"categories_nodes":[],"categories_segments":[],"categories_sizes":[],"default_left":[0,0,0,0,0,0,0,0,0,0,0,0,0,0,0,0,0,0,0,0,0,0,0,0,0,0,0,0,0,0,0,0,0,0,0,0,0,0,0,0,0,0,0,0,0,0,0,0,0,0,0,0,0,0,0,0,0,0,0,0,0,0,0,0,0,0,0,0,0,0,0,0,0,0,0,0,0,0,0,0,0,0,0,0,0,0,0,0,0,0,0,0,0,0,0,0,0,0,0,0,0,0,0,0,0,0,0,0,0,0,0,0,0,0,0,0,0,0,0,0,0,0,0,0,0],"id":5,"left_children":[1,3,5,7,9,11,13,15,17,19,21,23,25,27,29,31,33,35,37,39,41,43,45,47,49,51,53,55,57,59,61,63,65,-1,67,69,71,73,75,77,79,81,83,85,87,89,91,93,95,97,99,101,103,105,107,109,111,113,115,117,119,121,123,-1,-1,-1,-1,-1,-1,-1,-1,-1,-1,-1,-1,-1,-1,-1,-1,-1,-1,-1,-1,-1,-1,-1,-1,-1,-1,-1,-1,-1,-1,-1,-1,-1,-1,-1,-1,-1,-1,-1,-1,-1,-1,-1,-1,-1,-1,-1,-1,-1,-1,-1,-1,-1,-1,-1,-1,-1,-1,-1,-1,-1,-1],"loss_changes":[2.6083972E3,2.4597021E2,1.537179E2,4.7181946E1,5.8134323E1,5.2054565E1,2.857837E1,1.5873474E1,1.13341675E1,4.9285175E1,3.6098267E1,1.5391623E1,3.2576996E1,2.9892578E0,1.0336365E1,9.72525E0,5.2298126E0,9.646244E0,8.400269E0,1.7417631E1,1.8371458E1,1.7140762E1,2.4685081E1,5.3068514E0,3.6549883E0,1.2737056E1,3.314131E1,2.7160645E0,6.2506104E-1,4.1042743E0,5.8308716E0,1.1124481E1,1.1386034E1,0E0,4.027008E0,1.4051089E0,6.566765E0,1.2158218E1,8.142792E0,9.42804E0,6.580944E0,1.0994373E1,3.0637875E0,6.4046974E0,1.6332443E1,1.8563328E1,9.359665E-1,4.9608517E0,1.6619152E0,3.3939E0,1.213366E0,4.146307E0,7.588954E-1,2.388556E0,3.4699097E0,1.511425E0,1.531189E0,4.684143E-1,8.010864E-1,5.346551E-1,2.6669962E0,1.9200745E0,1.8378296E0,0E0,0E0,0E0,0E0,0E0,0E0,0E0,0E0,0E0,0E0,0E0,0E0,0E0,0E0,0E0,0E0,0E0,0E0,0E0,0E0,0E0,0E0,0E0,0E0,0E0,0E0,0E0,0E0,0E0,0E0,0E0,0E0,0E0,0E0,0E0,0E0,0E0,0E0,0E0,0E0,0E0,0E0,0E0,0E0,0E0,0E0,0E0,0E0,0E0,0E0,0E0,0E0,0E0,0E0,0E0,0E0,0E0,0E0,0E0,0E0,0E0,0E0],"parents":[2147483647,0,0,1,1,2,2,3,3,4,4,5,5,6,6,7,7,8,8,9,9,10,10,11,11,12,12,13,13,14,14,15,15,16,16,17,17,18,18,19,19,20,20,21,21,22,22,23,23,24,24,25,25,26,26,27,27,28,28,29,29,30,30,31,31,32,32,34,34,35,35,36,36,37,37,38,38,39,39,40,40,41,41,42,42,43,43,44,44,45,45,46,46,47,47,48,48,49,49,50,50,51,51,52,52,53,53,54,54,55,55,56,56,57,57,58,58,59,59,60,60,61,61,62,62],"right_children":[2,4,6,8,10,12,14,16,18,20,22,24,26,28,30,32,34,36,38,40,42,44,46,48,50,52,54,56,58,60,62,64,66,-1,68,70,72,74,76,78,80,82,84,86,88,90,92,94,96,98,100,102,104,106,108,110,112,114,116,118,120,122,124,-1,-1,-1,-1,-1,-1,-1,-1,-1,-1,-1,-1,-1,-1,-1,-1,-1,-1,-1,-1,-1,-1,-1,-1,-1,-1,-1,-1,-1,-1,-1,-1,-1,-1,-1,-1,-1,-1,-1,-1,-1,-1,-1,-1,-1,-1,-1,-1,-1,-1,-1,-1,-1,-1,-1,-1,-1,-1,-1,-1,-1,-1],"split_conditions":[-1.8382632E0,-3.512271E0,-6.8596894E-1,-2.5276885E0,5.5503637E-1,-1.2842761E0,-1.8466346E-1,-2.9229136E0,1.2452083E0,-1.9567906E0,6.045722E0,-8.832112E-1,-1.0066966E-2,-2.7783364E-1,-9.835726E-3,-5.0766323E-2,-1.8203337E0,-1.4229416E0,-4.430245E0,-8.673138E-1,-4.2377897E-2,-2.5153097E-2,-1.2933905E0,-5.250295E-1,-9.024543E-3,-2.609113E-1,-1.4229416E0,-1.6176037E0,-1.287991E-3,4.1873127E-1,-1.0758371E0,-1.1272426E0,-3.9820747E0,-3.1240692E-2,5.3260083E0,-1.3688796E0,1.3343544E0,-2.8918937E-2,3.2980132E0,-3.12733E0,-8.25257E-3,-9.507784E-3,-6.4159685E-1,-8.355936E-1,-2.5560334E0,-3.9077435E-2,-2.237167E0,3.2980132E0,5.3260083E0,-2.4128814E0,-8.3827275E-1,-2.1404636E0,-1.3416629E0,1.69532E-1,-6.1038234E-3,-6.612892E-1,-9.899571E-1,-4.4661425E-3,-6.1534736E-2,-5.8653104E-1,-2.2970949E-1,-1.0316318E0,-8.4856737E-1,1.7803835E-2,2.8820977E-2,2.6687726E-2,-2.8980249E-3,2.8242765E-2,3.8383998E-2,-3.9604984E-2,-1.0740208E-3,-9.124817E-3,1.3714726E-2,2.8322933E-2,1.2700247E-2,2.406062E-2,1.0459688E-2,2.4235575E-2,-3.3717416E-3,1.2416606E-2,-1.7773494E-3,-1.6758438E-3,-1.296469E-2,1.9828266E-2,-4.9398025E-3,1.6989676E-2,-5.60113E-3,1.0831276E-2,5.685278E-3,1.0696364E-2,3.301713E-2,3.841565E-2,2.3316791E-2,8.322198E-3,2.5216628E-2,-3.1949025E-2,8.203379E-3,2.7933273E-2,-1.0417723E-2,-1.05627235E-2,-2.3805665E-2,-1.1284503E-2,3.5838746E-2,-9.711894E-3,8.4333075E-3,1.3587459E-2,-1.1189459E-3,-1.8781235E-2,-2.4747305E-2,-5.3373277E-3,-2.8621478E-2,-7.3205563E-3,-3.7000936E-2,-2.877408E-2,-3.378466E-2,-3.438437E-2,-2.3252117E-2,-4.6894015E-3,-2.1474374E-2,3.0597521E-2,-1.8071098E-2,-1.4839924E-2,-2.4574393E-2,-2.702394E-2,-3.1120328E-2],"split_indices":[14,14,0,0,10,0,10,8,10,8,10,12,20,10,20,6,12,12,16,12,9,20,8,14,20,18,12,12,20,10,14,12,14,0,10,5,11,20,10,8,20,20,0,12,14,6,14,10,10,0,14,9,16,11,20,0,6,20,6,0,18,6,12,0,0,0,0,0,0,0,0,0,0,0,0,0,0,0,0,0,0,0,0,0,0,0,0,0,0,0,0,0,0,0,0,0,0,0,0,0,0,0,0,0,0,0,0,0,0,0,0,0,0,0,0,0,0,0,0,0,0,0,0,0,0],"split_type":[0,0,0,0,0,0,0,0,0,0,0,0,0,0,0,0,0,0,0,0,0,0,0,0,0,0,0,0,0,0,0,0,0,0,0,0,0,0,0,0,0,0,0,0,0,0,0,0,0,0,0,0,0,0,0,0,0,0,0,0,0,0,0,0,0,0,0,0,0,0,0,0,0,0,0,0,0,0,0,0,0,0,0,0,0,0,0,0,0,0,0,0,0,0,0,0,0,0,0,0,0,0,0,0,0,0,0,0,0,0,0,0,0,0,0,0,0,0,0,0,0,0,0,0,0],"sum_hessian":[2.0787791E4,1.4491506E4,6.296286E3,4.5138633E3,9.977643E3,1.6914984E3,4.6047876E3,1.8587676E3,2.655096E3,2.3928438E3,7.5847983E3,3.3028098E2,1.3612174E3,2.537168E3,2.0676199E3,1.3424736E3,5.1629395E2,8.0053455E2,1.8545614E3,1.321994E3,1.0708496E3,6.8217686E3,7.630299E2,2.0341832E2,1.2686267E2,8.858755E1,1.2726298E3,1.6773741E3,8.5979364E2,3.3938976E1,2.033681E3,1.2135969E3,1.2887682E2,2.2463071E0,5.140476E2,1.2210119E1,7.8832446E2,8.493901E2,1.00517126E3,4.3372577E2,8.8826825E2,9.8968854E2,8.116108E1,3.1509274E2,6.506676E3,5.9996796E2,1.6306192E2,1.9260794E2,1.0810386E1,2.1283945E1,1.0557872E2,4.254476E1,4.604279E1,1.0931415E2,1.1633157E3,6.820645E1,1.6091677E3,7.656337E2,9.415992E1,1.9808271E1,1.4130704E1,6.640849E2,1.3695961E3,3.167215E2,8.9687537E2,6.182069E1,6.705612E1,1.5798E2,3.5606763E2,9.040142E0,3.1699767E0,3.217643E1,7.56148E2,1.5202911E2,6.9736096E2,8.768175E2,1.2835371E2,3.2503407E1,4.0122235E2,7.9756335E2,9.070493E1,3.179412E2,6.717474E2,6.625857E1,1.4902512E1,3.4329353E1,2.807634E2,3.985383E3,2.5212927E3,4.850423E2,1.1492568E2,1.458233E2,1.7238623E1,1.2586256E2,6.674538E1,7.6304307E0,3.179955E0,1.0441654E1,1.084229E1,8.312977E1,2.2448957E1,4.8385983E0,3.770616E1,4.012915E1,5.9136367E0,5.2156616E1,5.7157528E1,3.8544833E2,7.778674E2,8.459301E0,5.974715E1,4.912808E0,1.6042549E3,1.0359734E2,6.620364E2,3.3903347E1,6.0256577E1,9.238637E0,1.0569634E1,1.1199885E1,2.9308186E0,6.1423973E1,6.0266095E2,5.3170795E2,8.378882E2],"tree_param":{"num_deleted":"0","num_feature":"21","num_nodes":"125","size_leaf_vector":"1"}},{"base_weights":[-5.4745027E-4,2.4376816E-1,-4.8071495E-1,3.064008E-1,-1.21690415E-1,2.1840128E-1,-5.4092443E-1,4.6784556E-1,2.271107E-1,-4.5614425E-2,-2.355825E-1,1.4073397E-1,7.391596E-1,-3.8938838E-1,-6.288955E-1,5.06572E-1,3.2633102E-1,3.2411435E-1,1.6285208E-1,-1.0544788E-1,1.2145499E-1,-1.6018513E-1,-3.3990985E-1,-3.789786E-2,2.743121E-1,-1.0752649E-3,7.694493E-1,-4.3624225E-3,-4.151609E-1,-4.9857077E-1,-6.607013E-1,4.581755E-1,6.7330796E-1,6.9941866E-1,2.8187057E-1,1.23768434E-1,3.804287E-1,2.3236205E-1,7.731141E-2,-3.7840748E-1,-6.414453E-2,8.52136E-2,7.6534057E-1,-9.866552E-2,-3.482495E-1,-1.59727E-1,-3.678521E-1,-1.2595914E-1,1.4378038E-1,3.4173778E-1,-1.9638309E-1,2.2473043E-2,-1.8425828E-2,-8.565085E-3,7.892616E-1,7.834884E-2,-4.0634906E-1,-2.2696914E-1,-4.7881436E-1,-3.7859678E-1,-5.435297E-1,-6.262288E-1,-6.928676E-1,1.3373121E-2,2.4490496E-2,-4.7045816E-2,3.4470882E-2,4.1127767E-2,2.0238299E-2,1.634651E-2,-5.641623E-4,1.2643421E-2,-3.0345435E-3,1.7388778E-2,2.8997848E-2,-1.2595556E-2,1.2432817E-2,5.7160757E-3,-2.4895028E-3,-8.53728E-3,-2.5023332E-2,-4.139828E-3,1.2125071E-2,7.2671226E-3,-1.1270965E-2,4.1168038E-2,1.2144412E-2,-2.4385967E-3,-1.5531172E-2,-9.161601E-3,-2.1325445E-2,-1.4014716E-2,8.723731E-3,-2.020917E-2,-1.2681618E-2,1.2210574E-2,-8.336519E-3,3.0236808E-3,2.0749135E-2,2.3055544E-2,-8.0616046E-5,-1.3415674E-2,1.1212847E-2,4.026567E-2,2.6738017E-3,5.714865E-3,-1.984956E-2,9.0199953E-4,-2.3213254E-2,-1.3394251E-2,2.9104238E-2,-1.9743813E-2,-2.5746455E-2,-5.1950323E-3,-2.080207E-2,-2.7571756E-2,-1.8508447E-2,-3.4866203E-2,-2.9775485E-2,-3.3725854E-2,-3.659283E-2],"categories":[],"categories_nodes":[],"categories_segments":[],"categories_sizes":[],"default_left":[0,0,0,0,0,0,0,0,0,0,0,0,0,0,0,0,0,0,0,0,0,0,0,0,0,0,0,0,0,0,0,0,0,0,0,0,0,0,0,0,0,0,0,0,0,0,0,0,0,0,0,0,0,0,0,0,0,0,0,0,0,0,0,0,0,0,0,0,0,0,0,0,0,0,0,0,0,0,0,0,0,0,0,0,0,0,0,0,0,0,0,0,0,0,0,0,0,0,0,0,0,0,0,0,0,0,0,0,0,0,0,0,0,0,0,0,0,0,0,0,0],"id":6,"left_children":[1,3,5,7,9,11,13,15,17,19,21,23,25,27,29,31,33,35,37,39,41,43,45,47,49,51,53,55,57,59,61,63,65,67,69,71,73,75,77,79,81,83,85,87,89,91,93,95,97,99,101,-1,-1,-1,103,105,107,109,111,113,115,117,119,-1,-1,-1,-1,-1,-1,-1,-1,-1,-1,-1,-1,-1,-1,-1,-1,-1,-1,-1,-1,-1,-1,-1,-1,-1,-1,-1,-1,-1,-1,-1,-1,-1,-1,-1,-1,-1,-1,-1,-1,-1,-1,-1,-1,-1,-1,-1,-1,-1,-1,-1,-1,-1,-1,-1,-1,-1,-1],"loss_changes":[2.4030256E3,3.107921E2,2.908894E2,1.4825977E2,1.7205606E1,2.2078608E1,8.454297E1,2.0750488E1,4.8409576E1,1.1933618E1,6.2029E0,1.1428165E1,1.5915489E0,2.3205994E1,1.634436E1,2.3856812E1,1.34515E1,3.489444E1,2.7801376E1,9.881081E0,7.2837057E0,5.330043E0,1.616951E0,3.3075616E0,8.759853E0,7.9264396E-1,1.4055634E0,4.9439993E0,2.614978E1,4.0726166E0,3.1480713E0,1.3890564E1,1.8112366E1,2.8214111E0,9.737442E0,1.6232538E1,1.5545624E1,2.042688E1,9.879427E0,2.8362598E0,4.3916693E0,5.622551E0,3.0490494E-1,3.6943605E0,1.3926716E0,1.9206408E0,1.0900307E0,2.138778E0,1.5019798E0,9.835333E0,1.1177748E0,0E0,0E0,0E0,7.4744415E-1,2.1534348E0,6.320076E-1,1.8559088E1,4.7593994E0,2.2146358E0,5.834503E-1,3.0129395E0,6.951904E-1,0E0,0E0,0E0,0E0,0E0,0E0,0E0,0E0,0E0,0E0,0E0,0E0,0E0,0E0,0E0,0E0,0E0,0E0,0E0,0E0,0E0,0E0,0E0,0E0,0E0,0E0,0E0,0E0,0E0,0E0,0E0,0E0,0E0,0E0,0E0,0E0,0E0,0E0,0E0,0E0,0E0,0E0,0E0,0E0,0E0,0E0,0E0,0E0,0E0,0E0,0E0,0E0,0E0,0E0,0E0,0E0,0E0,0E0],"parents":[2147483647,0,0,1,1,2,2,3,3,4,4,5,5,6,6,7,7,8,8,9,9,10,10,11,11,12,12,13,13,14,14,15,15,16,16,17,17,18,18,19,19,20,20,21,21,22,22,23,23,24,24,25,25,26,26,27,27,28,28,29,29,30,30,31,31,32,32,33,33,34,34,35,35,36,36,37,37,38,38,39,39,40,40,41,41,42,42,43,43,44,44,45,45,46,46,47,47,48,48,49,49,50,50,54,54,55,55,56,56,57,57,58,58,59,59,60,60,61,61,62,62],"right_children":[2,4,6,8,10,12,14,16,18,20,22,24,26,28,30,32,34,36,38,40,42,44,46,48,50,52,54,56,58,60,62,64,66,68,70,72,74,76,78,80,82,84,86,88,90,92,94,96,98,100,102,-1,-1,-1,104,106,108,110,112,114,116,118,120,-1,-1,-1,-1,-1,-1,-1,-1,-1,-1,-1,-1,-1,-1,-1,-1,-1,-1,-1,-1,-1,-1,-1,-1,-1,-1,-1,-1,-1,-1,-1,-1,-1,-1,-1,-1,-1,-1,-1,-1,-1,-1,-1,-1,-1,-1,-1,-1,-1,-1,-1,-1,-1,-1,-1,-1,-1,-1],"split_conditions":[-1.0691689E0,-5.3392196E-1,-3.9366472E-1,-3.5729945E0,-2.9101386E0,1.559797E0,-6.0828507E-1,-1.0992333E0,-1.611637E0,-6.32695E-2,-3.32835E-1,-5.1789314E-1,-1.1775191E0,-1.4229416E0,-9.530022E-1,-3.847873E-1,-2.8918937E-2,-2.9511185E0,-4.2130595E-1,-6.718671E-1,-1.9105179E-4,3.2551148E0,-2.76131E0,-1.3285896E0,-9.835726E-3,-1.644982E-2,1.5928229E0,-6.8596894E-1,-2.829995E-1,-2.4358618E-1,-3.5817692E-1,-3.3053486E0,-3.7882452E0,-6.907963E-1,-7.205309E-1,-2.8853528E0,-1.7143938E-1,-6.907963E-1,-7.604704E-1,-7.914617E-1,-1.9448778E-1,-3.68775E-1,-1.2337648E0,-5.2850866E-1,-8.048604E-1,3.562727E-1,5.7039235E-2,-3.8876877E0,-1.396476E0,2.0962353E0,-5.3603772E-2,2.2473043E-2,-1.8425828E-2,-8.565085E-3,-9.309061E-3,-1.783863E-1,-7.457772E-1,1.7891529E0,-1.7408075E0,-8.672684E-1,1.1484E0,-1.0680336E0,-2.773964E-2,1.3373121E-2,2.4490496E-2,-4.7045816E-2,3.4470882E-2,4.1127767E-2,2.0238299E-2,1.634651E-2,-5.641623E-4,1.2643421E-2,-3.0345435E-3,1.7388778E-2,2.8997848E-2,-1.2595556E-2,1.2432817E-2,5.7160757E-3,-2.4895028E-3,-8.53728E-3,-2.5023332E-2,-4.139828E-3,1.2125071E-2,7.2671226E-3,-1.1270965E-2,4.1168038E-2,1.2144412E-2,-2.4385967E-3,-1.5531172E-2,-9.161601E-3,-2.1325445E-2,-1.4014716E-2,8.723731E-3,-2.020917E-2,-1.2681618E-2,1.2210574E-2,-8.336519E-3,3.0236808E-3,2.0749135E-2,2.3055544E-2,-8.0616046E-5,-1.3415674E-2,1.1212847E-2,4.026567E-2,2.6738017E-3,5.714865E-3,-1.984956E-2,9.0199953E-4,-2.3213254E-2,-1.3394251E-2,2.9104238E-2,-1.9743813E-2,-2.5746455E-2,-5.1950323E-3,-2.080207E-2,-2.7571756E-2,-1.8508447E-2,-3.4866203E-2,-2.9775485E-2,-3.3725854E-2,-3.659283E-2],"split_indices":[3,13,17,14,14,13,0,13,13,6,17,12,0,12,14,17,20,13,17,17,20,11,14,5,20,20,11,0,17,17,0,13,13,17,12,14,9,17,13,12,17,17,12,12,12,13,4,4,16,11,6,0,0,0,20,3,9,13,14,3,4,12,6,0,0,0,0,0,0,0,0,0,0,0,0,0,0,0,0,0,0,0,0,0,0,0,0,0,0,0,0,0,0,0,0,0,0,0,0,0,0,0,0,0,0,0,0,0,0,0,0,0,0,0,0,0,0,0,0,0,0],"split_type":[0,0,0,0,0,0,0,0,0,0,0,0,0,0,0,0,0,0,0,0,0,0,0,0,0,0,0,0,0,0,0,0,0,0,0,0,0,0,0,0,0,0,0,0,0,0,0,0,0,0,0,0,0,0,0,0,0,0,0,0,0,0,0,0,0,0,0,0,0,0,0,0,0,0,0,0,0,0,0,0,0,0,0,0,0,0,0,0,0,0,0,0,0,0,0,0,0,0,0,0,0,0,0,0,0,0,0,0,0,0,0,0,0,0,0,0,0,0,0,0,0],"sum_hessian":[2.0481986E4,1.3575224E4,6.906762E3,1.1589215E4,1.9860095E3,5.474519E2,6.35931E3,3.8154907E3,7.7737236E3,1.1915175E3,7.9449207E2,4.7750565E2,6.994624E1,2.3377717E3,4.0215386E3,2.9936711E3,8.218195E2,3.0960056E3,4.6777183E3,8.775902E2,3.1392722E2,4.626618E2,3.3183026E2,2.0460588E2,2.7289978E2,2.7875383E0,6.715871E1,1.4673944E2,2.1910322E3,7.921912E2,3.2293474E3,2.323115E3,6.7055615E2,8.593864E1,7.3588086E2,6.8000275E2,2.416003E3,2.5797268E3,2.0979912E3,1.1426837E2,7.6332184E2,2.982712E2,1.5655987E1,3.4976978E2,1.1289205E2,4.5452225E1,2.8637802E2,1.380152E2,6.6590675E1,2.3894551E2,3.3954254E1,1.1519108E0,1.6356274E0,1.2274829E0,6.593123E1,1.223668E2,2.4372639E1,5.5493384E2,1.6360984E3,2.185108E2,5.736804E2,1.5686755E3,1.6606718E3,3.3186526E2,1.9912498E3,6.058693E0,6.6449744E2,5.9346043E1,2.6592598E1,6.377408E2,9.81401E1,3.9981088E2,2.8019183E2,2.0785823E3,3.3742078E2,8.350367E1,2.4962231E3,1.6249346E3,4.730568E2,4.3188953E1,7.107942E1,7.2024243E2,4.307943E1,2.5034444E2,4.792678E1,1.3572733E1,2.0832531E0,2.841198E2,6.564994E1,3.7390953E1,7.550109E1,3.352057E1,1.1931654E1,2.153426E2,7.103543E1,1.3197997E1,1.2481721E2,5.1877995E1,1.471268E1,1.7704799E2,6.1897526E1,2.9305141E1,4.6491137E0,6.443111E1,1.5001171E0,1.1446939E2,7.8974104E0,3.0093858E0,2.1363253E1,5.288571E2,2.6076725E1,4.9576706E2,1.1403313E3,2.6665512E1,1.9184529E2,5.465752E2,2.7105244E1,4.6674875E2,1.1019268E3,1.1416466E3,5.190252E2],"tree_param":{"num_deleted":"0","num_feature":"21","num_nodes":"121","size_leaf_vector":"1"}},{"base_weights":[-3.0326948E-4,2.3867397E-1,-4.6759647E-1,2.982254E-1,-1.1942855E-1,7.899106E-2,-5.34916E-1,4.171055E-1,2.0871505E-1,2.6451914E-2,-1.5514845E-1,-1.5112755E-1,3.243396E-1,-6.316768E-1,-4.2986092E-1,4.559683E-2,4.3506783E-1,2.3695426E-1,5.5031445E-2,2.1171401E-1,-1.07987195E-1,-7.9417415E-2,-2.4412008E-1,-1.8890786E-1,5.509679E-1,5.1437896E-1,1.8285695E-1,-9.373625E-2,-6.494734E-1,2.1715629E-1,-4.3972287E-1,2.6306182E-1,-1.5378264E-1,5.2717775E-1,3.8335058E-1,3.4761882E-1,1.935101E-1,1.10871926E-1,-9.459866E-2,7.709659E-2,5.0383735E-1,3.384653E-2,-1.8375191E-1,-2.3684491E-1,1.9679382E-3,-3.1702736E-1,-1.7194295E-1,1.6278258E-1,-2.056962E-1,3.961745E-2,-3.2208487E-1,6.600234E-1,2.8399852E-1,1.1027403E-1,6.5840214E-1,-4.931919E-1,8.3884545E-2,-6.998762E-1,-5.9571326E-1,9.586875E-3,6.220078E-1,-3.5936615E-1,-5.050801E-1,-8.944237E-3,2.3969261E-2,-1.7970448E-2,1.4251748E-2,2.0133095E-2,2.9821074E-2,1.1375914E-2,2.2106176E-2,-1.6428916E-2,1.8348446E-2,1.0460545E-2,-1.8851145E-3,8.910212E-3,-3.745198E-3,2.6841403E-3,-1.1308818E-2,6.34524E-3,-2.4628123E-2,3.0388921E-2,-1.6749842E-2,-3.203019E-2,4.7786953E-3,1.0364126E-2,-1.2177401E-2,-4.5830603E-3,-1.4674007E-2,-9.983434E-3,1.6712334E-3,-1.2896399E-2,-1.8459668E-2,-6.2639634E-3,-1.6294183E-2,-2.7427902E-2,1.7550426E-2,-1.7363733E-2,-6.8954565E-3,-2.9627848E-2,1.1495537E-2,3.6673885E-2,-8.779694E-3,1.0494357E-3,3.7863005E-2,3.4621652E-2,3.551264E-3,3.528821E-2,-1.5217868E-3,-2.6593868E-2,1.6423289E-2,9.6539995E-3,-1.44482E-2,-2.2120478E-2,-3.5235565E-2,-3.0260801E-2,-2.3688057E-2,1.0091188E-2,-2.3456994E-2,3.224058E-2,9.132073E-3,-1.8881116E-2,1.6795155E-2,-2.3884455E-2,-2.7686227E-2],"categories":[],"categories_nodes":[],"categories_segments":[],"categories_sizes":[],"default_left":[0,0,0,0,0,0,0,0,0,0,0,0,0,0,0,0,0,0,0,0,0,0,0,0,0,0,0,0,0,0,0,0,0,0,0,0,0,0,0,0,0,0,0,0,0,0,0,0,0,0,0,0,0,0,0,0,0,0,0,0,0,0,0,0,0,0,0,0,0,0,0,0,0,0,0,0,0,0,0,0,0,0,0,0,0,0,0,0,0,0,0,0,0,0,0,0,0,0,0,0,0,0,0,0,0,0,0,0,0,0,0,0,0,0,0,0,0,0,0,0,0,0,0,0,0],"id":7,"left_children":[1,3,5,7,9,11,13,15,17,19,21,23,25,27,29,31,33,35,37,39,41,43,45,47,49,51,53,55,57,59,61,63,65,67,69,71,73,75,77,79,81,83,85,87,89,91,93,95,97,-1,99,101,103,105,107,109,111,113,115,117,119,121,123,-1,-1,-1,-1,-1,-1,-1,-1,-1,-1,-1,-1,-1,-1,-1,-1,-1,-1,-1,-1,-1,-1,-1,-1,-1,-1,-1,-1,-1,-1,-1,-1,-1,-1,-1,-1,-1,-1,-1,-1,-1,-1,-1,-1,-1,-1,-1,-1,-1,-1,-1,-1,-1,-1,-1,-1,-1,-1,-1,-1,-1,-1],"loss_changes":[2.2392485E3,2.8296265E2,2.4969836E2,1.20961365E2,9.86512E0,4.2104576E1,6.1136475E1,3.2579895E1,2.815921E1,9.315001E0,1.022443E1,1.0317781E1,9.607666E0,3.0023926E1,1.859668E1,9.857673E0,2.1995667E1,2.629596E1,8.440655E0,6.143973E0,2.3365655E0,1.054184E1,3.6215286E0,2.195261E0,4.4525537E0,4.960972E0,7.120315E0,7.2644205E0,7.8250732E0,3.7084126E0,1.4819397E1,1.04747925E1,1.0817904E1,1.4183441E1,2.7264618E1,2.0330536E1,1.4310699E1,9.209843E0,5.3724585E0,3.1497817E0,4.512186E0,3.2398782E0,3.3592286E0,2.2786589E0,3.4531054E0,9.725418E-1,2.4965658E0,2.5008376E0,3.3101301E0,0E0,8.8646346E-1,5.852604E0,7.6000886E0,4.109275E0,9.152012E-1,1.1753197E0,2.959587E0,1.635437E0,1.4266968E0,2.8771908E0,3.217125E-2,1.6432205E1,1.8309937E0,0E0,0E0,0E0,0E0,0E0,0E0,0E0,0E0,0E0,0E0,0E0,0E0,0E0,0E0,0E0,0E0,0E0,0E0,0E0,0E0,0E0,0E0,0E0,0E0,0E0,0E0,0E0,0E0,0E0,0E0,0E0,0E0,0E0,0E0,0E0,0E0,0E0,0E0,0E0,0E0,0E0,0E0,0E0,0E0,0E0,0E0,0E0,0E0,0E0,0E0,0E0,0E0,0E0,0E0,0E0,0E0,0E0,0E0,0E0,0E0,0E0,0E0],"parents":[2147483647,0,0,1,1,2,2,3,3,4,4,5,5,6,6,7,7,8,8,9,9,10,10,11,11,12,12,13,13,14,14,15,15,16,16,17,17,18,18,19,19,20,20,21,21,22,22,23,23,24,24,25,25,26,26,27,27,28,28,29,29,30,30,31,31,32,32,33,33,34,34,35,35,36,36,37,37,38,38,39,39,40,40,41,41,42,42,43,43,44,44,45,45,46,46,47,47,48,48,50,50,51,51,52,52,53,53,54,54,55,55,56,56,57,57,58,58,59,59,60,60,61,61,62,62],"right_children":[2,4,6,8,10,12,14,16,18,20,22,24,26,28,30,32,34,36,38,40,42,44,46,48,50,52,54,56,58,60,62,64,66,68,70,72,74,76,78,80,82,84,86,88,90,92,94,96,98,-1,100,102,104,106,108,110,112,114,116,118,120,122,124,-1,-1,-1,-1,-1,-1,-1,-1,-1,-1,-1,-1,-1,-1,-1,-1,-1,-1,-1,-1,-1,-1,-1,-1,-1,-1,-1,-1,-1,-1,-1,-1,-1,-1,-1,-1,-1,-1,-1,-1,-1,-1,-1,-1,-1,-1,-1,-1,-1,-1,-1,-1,-1,-1,-1,-1,-1,-1,-1,-1,-1,-1],"split_conditions":[-1.0691689E0,-5.3392196E-1,-9.72246E-3,-2.2033393E0,-1.9046026E0,-5.214647E-1,-1.1165974E-1,-3.7882452E0,-1.7444602E0,-1.0146927E0,-1.1781414E-2,1.7891529E0,-2.609113E-1,-1.7216114E0,-1.4229416E0,-3.3980167E-1,-3.0807216E0,-1.3796786E0,-1.2836696E0,-1.9328129E0,2.9800828E0,-2.3361895E0,-4.7731608E-1,-3.8876877E0,3.1047708E-1,2.0546782E0,1.4595577E0,-3.6449924E-1,-2.7783364E-1,1.1643188E0,-5.6740097E-3,-2.6907274E-2,4.3085966E0,-2.9511185E0,-2.0150928E-2,1.4090967E-1,2.2817388E0,2.942814E0,-6.6714375E-3,-2.2579303E0,-1.688247E0,1.2801132E0,-2.6841748E0,1.0676014E0,-2.011355E-2,-1.773669E-1,1.6523205E0,-7.012874E-1,-9.691125E-1,3.961745E-2,-8.120527E-2,-4.7180998E-1,1.559797E0,-1.171079E0,1.8654097E0,-3.8663006E-1,-2.5131127E-1,-1.6176037E0,-1.2600039E-3,1.3007396E0,-5.049395E-1,1.7891529E0,-7.327089E-1,-8.944237E-3,2.3969261E-2,-1.7970448E-2,1.4251748E-2,2.0133095E-2,2.9821074E-2,1.1375914E-2,2.2106176E-2,-1.6428916E-2,1.8348446E-2,1.0460545E-2,-1.8851145E-3,8.910212E-3,-3.745198E-3,2.6841403E-3,-1.1308818E-2,6.34524E-3,-2.4628123E-2,3.0388921E-2,-1.6749842E-2,-3.203019E-2,4.7786953E-3,1.0364126E-2,-1.2177401E-2,-4.5830603E-3,-1.4674007E-2,-9.983434E-3,1.6712334E-3,-1.2896399E-2,-1.8459668E-2,-6.2639634E-3,-1.6294183E-2,-2.7427902E-2,1.7550426E-2,-1.7363733E-2,-6.8954565E-3,-2.9627848E-2,1.1495537E-2,3.6673885E-2,-8.779694E-3,1.0494357E-3,3.7863005E-2,3.4621652E-2,3.551264E-3,3.528821E-2,-1.5217868E-3,-2.6593868E-2,1.6423289E-2,9.6539995E-3,-1.44482E-2,-2.2120478E-2,-3.5235565E-2,-3.0260801E-2,-2.3688057E-2,1.0091188E-2,-2.3456994E-2,3.224058E-2,9.132073E-3,-1.8881116E-2,1.6795155E-2,-2.3884455E-2,-2.7686227E-2],"split_indices":[3,13,20,3,3,12,10,13,16,12,19,13,18,12,12,18,3,13,3,5,10,2,7,4,10,11,13,11,10,13,19,19,11,13,19,10,10,11,20,15,2,10,3,10,20,18,10,13,4,0,18,3,13,13,13,10,3,12,19,11,2,13,12,0,0,0,0,0,0,0,0,0,0,0,0,0,0,0,0,0,0,0,0,0,0,0,0,0,0,0,0,0,0,0,0,0,0,0,0,0,0,0,0,0,0,0,0,0,0,0,0,0,0,0,0,0,0,0,0,0,0,0,0,0,0],"split_type":[0,0,0,0,0,0,0,0,0,0,0,0,0,0,0,0,0,0,0,0,0,0,0,0,0,0,0,0,0,0,0,0,0,0,0,0,0,0,0,0,0,0,0,0,0,0,0,0,0,0,0,0,0,0,0,0,0,0,0,0,0,0,0,0,0,0,0,0,0,0,0,0,0,0,0,0,0,0,0,0,0,0,0,0,0,0,0,0,0,0,0,0,0,0,0,0,0,0,0,0,0,0,0,0,0,0,0,0,0,0,0,0,0,0,0,0,0,0,0,0,0,0,0,0,0],"sum_hessian":[2.0049938E4,1.3266063E4,6.7838745E3,1.1374657E4,1.8914059E3,7.438833E2,6.039991E3,4.884206E3,6.490451E3,3.7208127E2,1.5193246E3,3.8405365E2,3.5982962E2,3.1415012E3,2.8984897E3,2.2542206E2,4.658784E3,5.482505E3,1.00794617E3,1.5622398E2,2.1585727E2,8.2175464E2,6.9757E2,3.6513632E2,1.8917347E1,1.524386E2,2.0739102E2,1.0080244E2,3.040699E3,4.3200455E1,2.8552893E3,1.0766809E2,1.1775397E2,1.6718965E3,2.9868875E3,1.5435767E3,3.9389282E3,7.3420654E2,2.7373962E2,1.0780759E2,4.8416397E1,7.5351105E1,1.4050616E2,2.793959E2,5.423587E2,3.4534204E2,3.52228E2,1.6239836E1,3.4889648E2,1.4892355E1,4.024991E0,9.2252495E1,6.018611E1,1.8099715E2,2.6393875E1,3.0479565E1,7.0322876E1,1.5631519E3,1.477547E3,2.9235132E1,1.3965322E1,1.2836012E3,1.5716882E3,3.5439205E1,7.222888E1,8.030477E1,3.7449192E1,5.9992004E2,1.0719764E3,8.1933923E2,2.1675483E3,4.2497578E1,1.5010791E3,3.6885474E3,2.5038087E2,5.3892145E2,1.9528506E2,1.289789E2,1.4476074E2,9.985406E1,7.953525E0,4.3323566E1,5.092831E0,5.5317473E0,6.981936E1,1.8308952E1,1.2219721E2,7.9139984E1,2.0025592E2,7.247147E1,4.6988724E2,1.6469821E2,1.8064383E2,2.7168622E2,8.054179E1,2.9974725E0,1.3242364E1,1.1162863E2,2.3726785E2,2.6520386E0,1.3729527E0,8.491071E1,7.3417788E0,3.9357803E1,2.0828308E1,1.0380827E1,1.7061632E2,2.4672882E1,1.720993E0,2.9445868E1,1.033698E0,5.4765854E1,1.5557021E1,3.0519344E1,1.5326326E3,1.3670598E3,1.10487175E2,2.1271708E1,7.963424E0,1.283174E1,1.1335813E0,1.2512043E3,3.239681E1,1.0124247E3,5.592635E2],"tree_param":{"num_deleted":"0","num_feature":"21","num_nodes":"125","size_leaf_vector":"1"}},{"base_weights":[2.8890863E-3,2.0609578E-1,-5.196617E-1,2.9647663E-1,-1.2475243E-1,-2.7745488E-1,-5.9645593E-1,4.4977868E-1,2.2116204E-1,-1.5157099E-1,5.3533727E-1,6.3284166E-2,-3.5802525E-1,-4.942517E-1,-6.300637E-1,5.360957E-1,3.8242987E-1,3.307195E-1,1.5147793E-1,-3.8311552E-2,-2.807764E-1,6.709417E-1,4.4673957E-2,2.1722037E-1,-2.336453E-1,6.879276E-2,-4.0704218E-1,-4.0503246E-1,-5.304955E-1,-5.947757E-1,-6.6469854E-1,4.684975E-1,7.024253E-1,3.015405E-1,4.3784577E-1,3.0215907E-1,5.2518284E-1,2.2171968E-1,6.4547546E-2,-1.5829931E-1,3.2939713E-2,2.1764019E-1,-3.2323495E-1,-1.4588778E-1,7.3446304E-1,3.7791455E-1,-1.6547066E-1,2.687303E-1,-3.4359884E-1,-1.2855932E-1,-4.1397226E-1,2.0358528E-1,-8.153575E-2,3.213409E-1,-4.4053358E-1,-2.1030414E-1,-4.2976746E-1,-5.7130265E-1,-5.042652E-1,-6.3091403E-1,-5.418398E-1,-6.4773977E-1,-7.004649E-1,1.4270085E-2,2.6474545E-2,3.645757E-2,2.4007274E-2,2.6113737E-2,9.989583E-3,2.6680997E-2,1.5561848E-2,7.6702097E-3,1.672789E-2,-3.6317166E-2,2.6668323E-2,-1.289459E-2,1.1790687E-2,5.6996266E-3,-4.546459E-3,4.7543785E-3,-1.08291255E-2,3.941573E-3,-3.9583975E-3,2.4649162E-2,-1.2826507E-2,-1.3464416E-2,-1.973016E-2,1.4387103E-2,-1.3430676E-2,7.485028E-3,3.7437927E-2,1.7280661E-3,2.8269622E-2,-1.5667792E-2,1.7134598E-2,1.7691337E-2,-5.183766E-3,4.9136644E-3,-3.391057E-2,1.32500995E-2,-1.2203976E-2,-2.2088952E-2,8.569449E-3,1.3699497E-2,-1.7759606E-2,-1.7008279E-2,8.60601E-3,2.9222561E-2,-1.0183173E-2,-1.1656347E-2,-2.2849888E-2,-1.8267613E-2,-5.3449622E-3,-2.9607806E-3,-2.2191338E-2,-2.3879653E-2,-3.0232891E-2,-2.3378674E-2,-2.7876228E-2,-2.7839854E-2,-3.3122078E-2,-2.4531417E-2,-3.1227438E-2,-3.3366848E-2,-3.0311232E-2,-3.557713E-2,-2.7857004E-2],"categories":[],"categories_nodes":[],"categories_segments":[],"categories_sizes":[],"default_left":[0,0,0,0,0,0,0,0,0,0,0,0,0,0,0,0,0,0,0,0,0,0,0,0,0,0,0,0,0,0,0,0,0,0,0,0,0,0,0,0,0,0,0,0,0,0,0,0,0,0,0,0,0,0,0,0,0,0,0,0,0,0,0,0,0,0,0,0,0,0,0,0,0,0,0,0,0,0,0,0,0,0,0,0,0,0,0,0,0,0,0,0,0,0,0,0,0,0,0,0,0,0,0,0,0,0,0,0,0,0,0,0,0,0,0,0,0,0,0,0,0,0,0,0,0,0,0],"id":8,"left_children":[1,3,5,7,9,11,13,15,17,19,21,23,25,27,29,31,33,35,37,39,41,43,45,47,49,51,53,55,57,59,61,63,65,67,69,71,73,75,77,79,81,83,85,87,89,91,93,95,97,99,101,103,105,107,109,111,113,115,117,119,121,123,125,-1,-1,-1,-1,-1,-1,-1,-1,-1,-1,-1,-1,-1,-1,-1,-1,-1,-1,-1,-1,-1,-1,-1,-1,-1,-1,-1,-1,-1,-1,-1,-1,-1,-1,-1,-1,-1,-1,-1,-1,-1,-1,-1,-1,-1,-1,-1,-1,-1,-1,-1,-1,-1,-1,-1,-1,-1,-1,-1,-1,-1,-1,-1,-1],"loss_changes":[2.102171E3,4.262663E2,1.02935425E2,1.2916742E2,5.4235634E1,3.6707764E1,1.4141602E1,2.1230957E1,5.7280914E1,4.301918E1,7.931469E0,1.1770081E1,2.2641235E1,3.16716E0,3.470337E0,1.7813782E1,9.168243E0,1.6051422E1,2.8024445E1,1.3411172E1,2.9133911E1,4.967621E0,1.9519218E0,4.985158E0,1.6147618E0,2.2900972E0,2.3796295E1,1.3852539E0,5.045624E-1,2.6734009E0,5.093384E-1,1.2695404E1,2.4080353E0,1.8912529E1,1.4737045E1,1.2225052E1,4.2016144E0,1.7225777E1,1.5797287E1,8.651173E0,5.0722256E0,1.4280109E1,4.7678223E0,4.8139453E-1,6.1587524E-1,6.7171705E-1,1.4030827E0,4.970456E0,2.2381797E0,2.6590095E0,5.958953E-1,2.4358017E0,3.5851383E0,6.087008E0,3.0605621E0,5.4594016E-1,1.3849068E0,5.933838E-1,6.368637E-1,1.8057251E0,2.4321442E0,4.824829E-1,3.9486694E-1,0E0,0E0,0E0,0E0,0E0,0E0,0E0,0E0,0E0,0E0,0E0,0E0,0E0,0E0,0E0,0E0,0E0,0E0,0E0,0E0,0E0,0E0,0E0,0E0,0E0,0E0,0E0,0E0,0E0,0E0,0E0,0E0,0E0,0E0,0E0,0E0,0E0,0E0,0E0,0E0,0E0,0E0,0E0,0E0,0E0,0E0,0E0,0E0,0E0,0E0,0E0,0E0,0E0,0E0,0E0,0E0,0E0,0E0,0E0,0E0,0E0,0E0,0E0,0E0],"parents":[2147483647,0,0,1,1,2,2,3,3,4,4,5,5,6,6,7,7,8,8,9,9,10,10,11,11,12,12,13,13,14,14,15,15,16,16,17,17,18,18,19,19,20,20,21,21,22,22,23,23,24,24,25,25,26,26,27,27,28,28,29,29,30,30,31,31,32,32,33,33,34,34,35,35,36,36,37,37,38,38,39,39,40,40,41,41,42,42,43,43,44,44,45,45,46,46,47,47,48,48,49,49,50,50,51,51,52,52,53,53,54,54,55,55,56,56,57,57,58,58,59,59,60,60,61,61,62,62],"right_children":[2,4,6,8,10,12,14,16,18,20,22,24,26,28,30,32,34,36,38,40,42,44,46,48,50,52,54,56,58,60,62,64,66,68,70,72,74,76,78,80,82,84,86,88,90,92,94,96,98,100,102,104,106,108,110,112,114,116,118,120,122,124,126,-1,-1,-1,-1,-1,-1,-1,-1,-1,-1,-1,-1,-1,-1,-1,-1,-1,-1,-1,-1,-1,-1,-1,-1,-1,-1,-1,-1,-1,-1,-1,-1,-1,-1,-1,-1,-1,-1,-1,-1,-1,-1,-1,-1,-1,-1,-1,-1,-1,-1,-1,-1,-1,-1,-1,-1,-1,-1,-1,-1,-1,-1,-1,-1],"split_conditions":[-1.7253859E0,-5.3392196E-1,-6.8596894E-1,-3.5729945E0,1.559797E0,-1.2842761E0,-8.632589E-1,-2.5276885E0,-1.611637E0,-3.68775E-1,-1.7144778E0,-8.325944E-1,-1.4229416E0,-2.1763098E-1,-3.5817692E-1,-3.0217745E0,-4.6356654E0,-1.7143938E-1,-4.2130595E-1,-2.2671945E0,-1.3412342E0,-1.1775191E0,-2.181802E0,-5.48207E-1,-1.1225284E0,2.050594E-1,-3.9366472E-1,-7.4544775E-1,-2.4317423E-1,-9.300848E-2,-2.773964E-2,-2.9511185E0,-2.4503706E0,-2.6907274E-2,-1.3796786E0,-2.9511185E0,-2.0560937E0,-6.907963E-1,-7.604704E-1,-9.9773604E-1,-4.1648716E-1,-1.8433219E0,-2.1999032E0,-1.6385944E0,1.3343544E0,2.310324E0,-2.6503654E-2,-9.6166366E-1,-1.8344536E0,-2.8581384E-1,1.38106E0,8.6731744E-1,-2.4686421E-1,-1.0060512E-2,-1.3796786E0,-7.80889E-1,-3.9802495E-1,-1.7893347E-1,-3.427309E-2,-3.1033426E-3,-2.6897738E-2,-8.8217266E-2,-1.0602633E-2,1.4270085E-2,2.6474545E-2,3.645757E-2,2.4007274E-2,2.6113737E-2,9.989583E-3,2.6680997E-2,1.5561848E-2,7.6702097E-3,1.672789E-2,-3.6317166E-2,2.6668323E-2,-1.289459E-2,1.1790687E-2,5.6996266E-3,-4.546459E-3,4.7543785E-3,-1.08291255E-2,3.941573E-3,-3.9583975E-3,2.4649162E-2,-1.2826507E-2,-1.3464416E-2,-1.973016E-2,1.4387103E-2,-1.3430676E-2,7.485028E-3,3.7437927E-2,1.7280661E-3,2.8269622E-2,-1.5667792E-2,1.7134598E-2,1.7691337E-2,-5.183766E-3,4.9136644E-3,-3.391057E-2,1.32500995E-2,-1.2203976E-2,-2.2088952E-2,8.569449E-3,1.3699497E-2,-1.7759606E-2,-1.7008279E-2,8.60601E-3,2.9222561E-2,-1.0183173E-2,-1.1656347E-2,-2.2849888E-2,-1.8267613E-2,-5.3449622E-3,-2.9607806E-3,-2.2191338E-2,-2.3879653E-2,-3.0232891E-2,-2.3378674E-2,-2.7876228E-2,-2.7839854E-2,-3.3122078E-2,-2.4531417E-2,-3.1227438E-2,-3.3366848E-2,-3.0311232E-2,-3.557713E-2,-2.7857004E-2],"split_indices":[14,13,0,14,13,0,14,0,13,17,8,12,12,17,0,8,1,9,17,2,12,0,14,14,13,11,17,12,6,6,6,13,2,19,13,13,6,17,13,12,17,0,14,6,11,11,6,13,2,17,13,13,6,19,13,5,17,17,6,19,6,6,6,0,0,0,0,0,0,0,0,0,0,0,0,0,0,0,0,0,0,0,0,0,0,0,0,0,0,0,0,0,0,0,0,0,0,0,0,0,0,0,0,0,0,0,0,0,0,0,0,0,0,0,0,0,0,0,0,0,0,0,0,0,0,0,0],"split_type":[0,0,0,0,0,0,0,0,0,0,0,0,0,0,0,0,0,0,0,0,0,0,0,0,0,0,0,0,0,0,0,0,0,0,0,0,0,0,0,0,0,0,0,0,0,0,0,0,0,0,0,0,0,0,0,0,0,0,0,0,0,0,0,0,0,0,0,0,0,0,0,0,0,0,0,0,0,0,0,0,0,0,0,0,0,0,0,0,0,0,0,0,0,0,0,0,0,0,0,0,0,0,0,0,0,0,0,0,0,0,0,0,0,0,0,0,0,0,0,0,0,0,0,0,0,0,0],"sum_hessian":[1.9795086E4,1.4253045E4,5.5420405E3,1.1194928E4,3.0581177E3,1.3352653E3,4.2067754E3,3.6863772E3,7.5085503E3,2.9394617E3,1.1865599E2,2.5539449E2,1.0798708E3,1.0448866E3,3.161889E3,1.6126188E3,2.0737585E3,2.917658E3,4.590892E3,1.5670804E3,1.3723813E3,9.26758E1,2.5980186E1,1.6837355E2,8.702093E1,1.1119859E2,9.6867224E2,3.053645E2,7.3952216E2,1.575177E3,1.5867119E3,1.149334E3,4.632848E2,8.457204E2,1.228038E3,2.5462495E3,3.7140857E2,2.5383203E3,2.0525718E3,5.8340295E2,9.836774E2,1.0740763E2,1.2649736E3,6.593421E0,8.608238E1,9.738627E0,1.6241558E1,1.5468677E2,1.3686791E1,5.6063E1,3.0957924E1,5.8442066E1,5.2756527E1,4.220424E1,9.2646796E2,3.5487606E1,2.6987692E2,2.8122855E2,4.5829358E2,9.2962305E2,6.455539E2,1.0893186E3,4.9739325E2,2.886163E2,8.607176E2,4.1152435E2,5.176046E1,2.6553503E2,5.8018536E2,6.97326E2,5.30712E2,4.564141E2,2.0898354E3,1.8427286E0,3.6956586E2,7.196886E1,2.4663516E3,1.557515E3,4.9505682E2,1.0897996E2,4.7442303E2,6.981738E2,2.8550363E2,6.7925E1,3.9482624E1,7.231353E2,5.418384E2,1.1578318E0,5.4355893E0,2.3279605E0,8.375442E1,3.857755E0,5.8808727E0,1.2877355E1,3.3642046E0,1.25955284E2,2.8731485E1,6.202455E0,7.484337E0,1.242812E1,4.363488E1,2.9788166E1,1.1697577E0,5.2355106E1,6.0869603E0,2.5953283E1,2.6803246E1,2.8039019E1,1.4165219E1,6.925031E1,8.5721765E2,1.3184777E1,2.2302828E1,1.0055756E1,2.5982117E2,7.784513E1,2.033834E2,2.771425E2,1.811511E2,2.8299673E2,6.4662634E2,4.0297397E2,2.4257994E2,7.297608E2,3.595578E2,4.5802737E2,3.9365883E1],"tree_param":{"num_deleted":"0","num_feature":"21","num_nodes":"127","size_leaf_vector":"1"}},{"base_weights":[-7.660766E-5,2.204499E-1,-4.561759E-1,2.777867E-1,-1.2170909E-1,2.4353844E-1,-5.1178753E-1,4.3371856E-1,2.0331141E-1,-5.4431546E-2,-2.627557E-1,1.744594E-1,6.175828E-1,-3.8519633E-1,-5.9215623E-1,3.936856E-1,5.681489E-1,2.9509297E-1,1.4673617E-1,-7.105891E-2,4.1533372E-1,-1.7042279E-1,-3.6270344E-1,3.9088243E-1,3.9009076E-2,6.539636E-1,-1.7595007E-1,-2.39015E-1,-4.2276472E-1,-6.5994215E-1,-5.2634794E-1,1.3006897E-1,4.1672605E-1,-2.4224132E-1,5.837379E-1,-5.418708E-1,3.070471E-1,2.1316665E-1,6.8569005E-2,-3.1838456E-1,-4.3838874E-2,5.69471E-1,-2.984901E-1,-9.251328E-2,-2.7159804E-1,-3.8872105E-1,-2.4230914E-1,5.580411E-1,-1.0826023E-1,6.0478526E-1,1.7969707E-2,-9.809847E-3,6.6926074E-1,-2.3328569E-2,1.1032809E-2,-2.8077865E-1,4.16984E-1,-1.8025216E-1,-4.3984607E-1,-4.9262255E-1,-6.668178E-1,-4.4387126E-1,-5.4940796E-1,8.050579E-3,-3.2447524E-2,2.5085105E-2,1.7144283E-2,-3.134839E-2,3.3829667E-2,2.5734177E-2,3.627319E-2,-3.1535253E-2,-9.0561155E-3,7.12895E-3,1.6950965E-2,1.7342577E-2,8.10335E-3,5.0260276E-3,-4.978222E-3,-2.0635597E-2,-8.21922E-3,1.5740564E-2,-2.743201E-3,3.2635286E-2,1.6814113E-3,7.5447955E-3,-1.9953378E-2,-2.9559777E-4,-1.0104909E-2,-1.8894136E-3,-1.5263681E-2,-1.3734502E-2,-2.0324832E-2,-8.541327E-3,-1.9606529E-2,3.0762687E-2,-2.0514933E-2,-1.2991713E-2,6.155121E-3,3.6680564E-2,-5.845037E-3,-7.2376686E-3,3.9216634E-3,6.804777E-3,3.4694575E-2,-1.595188E-2,6.2735053E-3,3.720865E-2,-1.1534655E-2,7.7452147E-3,-2.4993598E-2,-2.8953126E-2,-2.1088677E-2,8.396413E-3,-2.5445376E-2,-3.431412E-2,-3.156018E-2,-7.93628E-3,-2.2705143E-2,-2.8012648E-2,-1.9528951E-2],"categories":[],"categories_nodes":[],"categories_segments":[],"categories_sizes":[],"default_left":[0,0,0,0,0,0,0,0,0,0,0,0,0,0,0,0,0,0,0,0,0,0,0,0,0,0,0,0,0,0,0,0,0,0,0,0,0,0,0,0,0,0,0,0,0,0,0,0,0,0,0,0,0,0,0,0,0,0,0,0,0,0,0,0,0,0,0,0,0,0,0,0,0,0,0,0,0,0,0,0,0,0,0,0,0,0,0,0,0,0,0,0,0,0,0,0,0,0,0,0,0,0,0,0,0,0,0,0,0,0,0,0,0,0,0,0,0,0,0,0,0],"id":9,"left_children":[1,3,5,7,9,11,13,15,17,19,21,23,25,27,29,31,33,35,37,39,41,43,45,47,49,51,53,55,57,59,61,63,65,67,69,71,73,75,77,79,81,83,85,87,89,91,93,95,97,99,101,-1,103,-1,-1,105,107,109,111,113,115,117,119,-1,-1,-1,-1,-1,-1,-1,-1,-1,-1,-1,-1,-1,-1,-1,-1,-1,-1,-1,-1,-1,-1,-1,-1,-1,-1,-1,-1,-1,-1,-1,-1,-1,-1,-1,-1,-1,-1,-1,-1,-1,-1,-1,-1,-1,-1,-1,-1,-1,-1,-1,-1,-1,-1,-1,-1,-1,-1],"loss_changes":[1.9562113E3,2.5723206E2,2.467821E2,1.3031287E2,1.7847322E1,1.1968689E1,5.9517822E1,1.9304321E1,3.942627E1,9.9937725E0,5.5455856E0,1.1590754E1,2.2071323E0,1.2438385E1,1.5667847E1,1.694809E1,1.0631805E1,2.9158234E1,2.4414276E1,8.286335E0,4.9842286E0,2.4793682E0,8.169899E-1,1.2767035E1,2.9009905E0,1.0351791E0,5.599319E-1,1.2969824E1,7.4399414E0,1.7015381E0,3.2301025E0,5.5629897E0,1.5977753E1,6.214131E0,7.6029053E0,1.2049971E0,1.4977661E1,1.7313568E1,1.1628782E1,1.705534E0,4.4136887E0,1.598342E0,4.4107443E-1,1.7167141E0,1.0727377E0,3.698349E-1,5.150492E-1,6.581932E0,1.4011966E0,8.9832234E-1,2.3419788E0,0E0,8.051243E-1,0E0,0E0,6.9044304E0,6.2072964E0,1.3053516E1,4.0204773E0,8.7584877E-1,7.397461E-1,1.107521E0,2.2327576E0,0E0,0E0,0E0,0E0,0E0,0E0,0E0,0E0,0E0,0E0,0E0,0E0,0E0,0E0,0E0,0E0,0E0,0E0,0E0,0E0,0E0,0E0,0E0,0E0,0E0,0E0,0E0,0E0,0E0,0E0,0E0,0E0,0E0,0E0,0E0,0E0,0E0,0E0,0E0,0E0,0E0,0E0,0E0,0E0,0E0,0E0,0E0,0E0,0E0,0E0,0E0,0E0,0E0,0E0,0E0,0E0,0E0,0E0],"parents":[2147483647,0,0,1,1,2,2,3,3,4,4,5,5,6,6,7,7,8,8,9,9,10,10,11,11,12,12,13,13,14,14,15,15,16,16,17,17,18,18,19,19,20,20,21,21,22,22,23,23,24,24,25,25,26,26,27,27,28,28,29,29,30,30,31,31,32,32,33,33,34,34,35,35,36,36,37,37,38,38,39,39,40,40,41,41,42,42,43,43,44,44,45,45,46,46,47,47,48,48,49,49,50,50,52,52,55,55,56,56,57,57,58,58,59,59,60,60,61,61,62,62],"right_children":[2,4,6,8,10,12,14,16,18,20,22,24,26,28,30,32,34,36,38,40,42,44,46,48,50,52,54,56,58,60,62,64,66,68,70,72,74,76,78,80,82,84,86,88,90,92,94,96,98,100,102,-1,104,-1,-1,106,108,110,112,114,116,118,120,-1,-1,-1,-1,-1,-1,-1,-1,-1,-1,-1,-1,-1,-1,-1,-1,-1,-1,-1,-1,-1,-1,-1,-1,-1,-1,-1,-1,-1,-1,-1,-1,-1,-1,-1,-1,-1,-1,-1,-1,-1,-1,-1,-1,-1,-1,-1,-1,-1,-1,-1,-1,-1,-1,-1,-1,-1,-1],"split_conditions":[-1.0269636E0,-5.3392196E-1,-3.9366472E-1,-3.5729945E0,-2.7372715E0,1.559797E0,-5.7357866E-1,5.3260083E0,-1.6742066E0,-1.0354377E-1,-3.32835E-1,-2.609113E-1,-1.9559584E0,-2.829995E-1,-2.4112158E-1,-3.3053486E0,-8.087291E-1,1.921857E-1,-4.2130595E-1,-6.718671E-1,-1.8433219E0,1.3837725E0,1.9801566E-1,2.0546782E0,-1.2808211E0,1.6279205E0,-1.8614892E0,1.7891529E0,1.9290662E-1,-1.7702751E-1,-1.0878867E0,-1.3294326E0,-1.6742066E0,-6.0467224E0,-3.8919967E-1,1.6652206E0,-3.4863392E-1,6.73411E-1,-7.156976E-1,3.8933089E0,-4.7197337E0,-4.764684E-1,-1.593433E-1,-4.1648716E-1,2.2856054E0,-3.0677E-1,-1.1312194E0,-4.9170348E-1,-1.9755522E0,-1.2667018E-1,-1.3174511E0,-9.809847E-3,-1.1775191E0,-2.3328569E-2,1.1032809E-2,-7.4472153E-1,2.7331322E-1,-6.8596894E-1,-1.1997977E-1,-6.596881E-1,-3.3658165E-1,-8.973058E-1,-1.3482093E-3,8.050579E-3,-3.2447524E-2,2.5085105E-2,1.7144283E-2,-3.134839E-2,3.3829667E-2,2.5734177E-2,3.627319E-2,-3.1535253E-2,-9.0561155E-3,7.12895E-3,1.6950965E-2,1.7342577E-2,8.10335E-3,5.0260276E-3,-4.978222E-3,-2.0635597E-2,-8.21922E-3,1.5740564E-2,-2.743201E-3,3.2635286E-2,1.6814113E-3,7.5447955E-3,-1.9953378E-2,-2.9559777E-4,-1.0104909E-2,-1.8894136E-3,-1.5263681E-2,-1.3734502E-2,-2.0324832E-2,-8.541327E-3,-1.9606529E-2,3.0762687E-2,-2.0514933E-2,-1.2991713E-2,6.155121E-3,3.6680564E-2,-5.845037E-3,-7.2376686E-3,3.9216634E-3,6.804777E-3,3.4694575E-2,-1.595188E-2,6.2735053E-3,3.720865E-2,-1.1534655E-2,7.7452147E-3,-2.4993598E-2,-2.8953126E-2,-2.1088677E-2,8.396413E-3,-2.5445376E-2,-3.431412E-2,-3.156018E-2,-7.93628E-3,-2.2705143E-2,-2.8012648E-2,-1.9528951E-2],"split_indices":[3,13,17,14,14,13,0,10,13,17,17,18,14,17,10,13,17,10,17,17,0,10,4,11,13,11,9,13,11,17,14,0,13,1,17,11,18,10,13,11,14,9,18,17,11,17,0,3,9,7,7,0,0,0,0,5,10,0,10,10,10,3,19,0,0,0,0,0,0,0,0,0,0,0,0,0,0,0,0,0,0,0,0,0,0,0,0,0,0,0,0,0,0,0,0,0,0,0,0,0,0,0,0,0,0,0,0,0,0,0,0,0,0,0,0,0,0,0,0,0,0],"split_type":[0,0,0,0,0,0,0,0,0,0,0,0,0,0,0,0,0,0,0,0,0,0,0,0,0,0,0,0,0,0,0,0,0,0,0,0,0,0,0,0,0,0,0,0,0,0,0,0,0,0,0,0,0,0,0,0,0,0,0,0,0,0,0,0,0,0,0,0,0,0,0,0,0,0,0,0,0,0,0,0,0,0,0,0,0,0,0,0,0,0,0,0,0,0,0,0,0,0,0,0,0,0,0,0,0,0,0,0,0,0,0,0,0,0,0,0,0,0,0,0,0],"sum_hessian":[1.9446924E4,1.3109112E4,6.337811E3,1.1227815E4,1.881297E3,4.6637894E2,5.871432E3,3.6276465E3,7.600169E3,1.2746771E3,6.066199E2,3.9491235E2,7.146656E1,2.282302E3,3.5891304E3,2.7982617E3,8.293848E2,2.8966848E3,4.7034844E3,1.231922E3,4.2755196E1,3.1672794E2,2.8989194E2,1.5129184E2,2.4362051E2,6.850186E1,2.964699E0,4.681313E2,1.8141707E3,1.7635527E3,1.8255776E3,2.2544806E2,2.5728135E3,1.5378862E1,8.14006E2,4.0165775E1,2.856519E3,2.5416946E3,2.1617898E3,1.21079285E2,1.1108427E3,3.5328808E1,7.4263897E0,1.8001932E2,1.3670862E2,2.3654501E2,5.334693E1,1.1324804E2,3.8043808E1,7.7398696E0,2.3588065E2,1.0017616E0,6.75001E1,1.6091512E0,1.3555479E0,4.406497E2,2.7481619E1,1.2013297E2,1.6940377E3,7.2476456E1,1.6910763E3,4.0331738E2,1.4222603E3,2.1759839E2,7.849672E0,1.1935146E3,1.379299E3,1.1063922E1,4.3149405E0,5.504411E2,2.6356488E2,3.1628853E1,8.536923E0,4.6580942E2,2.3907095E3,7.012707E2,1.840424E3,1.8169117E3,3.4487808E2,7.404542E1,4.7033875E1,3.230787E1,1.0785348E3,3.0390093E1,4.938714E0,1.2666457E0,6.1597443E0,1.01143166E2,7.887616E1,1.7478361E1,1.1923026E2,3.4119614E1,2.0242538E2,3.756444E1,1.578249E1,1.07274536E2,5.973499E0,2.2910955E1,1.5132854E1,6.553499E0,1.1863703E0,6.352483E1,1.723558E2,3.2687645E0,6.423134E1,4.02919E2,3.7730675E1,1.8159128E1,9.322491E0,5.8892776E1,6.1240192E1,1.910787E2,1.502959E3,1.5197663E0,7.095669E1,1.0816462E3,6.0943E2,1.4542581E1,3.887748E2,1.3289883E3,9.32719E1],"tree_param":{"num_deleted":"0","num_feature":"21","num_nodes":"121","size_leaf_vector":"1"}},{"base_weights":[2.3362123E-4,1.9640698E-1,-4.800801E-1,2.7657387E-1,-1.1109113E-1,-2.4212188E-1,-5.642724E-1,4.191808E-1,2.0435373E-1,-1.4039144E-1,5.220211E-1,1.2952624E-1,-3.1077534E-1,-6.358652E-1,-4.9282184E-1,3.790627E-1,5.544565E-1,2.7360547E-1,1.21573605E-1,-4.2927243E-2,-2.583466E-1,7.5781065E-1,3.4894925E-1,2.0275289E-1,-2.7914456E-1,3.0268723E-1,-3.4898648E-1,-6.555572E-1,-5.885046E-1,-4.154953E-1,-5.2525103E-1,1.23884216E-1,3.989192E-1,4.554111E-1,6.976914E-1,2.598455E-1,5.0747424E-1,1.822111E-1,3.2149E-2,-1.6344509E-1,2.7607968E-2,1.697313E-1,-2.989326E-1,4.017869E-2,1.5192148E-1,-5.715492E-2,6.4959866E-1,-5.104203E-1,2.412419E-1,2.54677E-1,-4.0571836E-1,-1.5586445E-1,5.102956E-1,7.647199E-2,-3.9572334E-1,-4.692631E-1,-6.6293335E-1,-5.9520864E-1,-3.8862476E-1,-3.2399255E-1,-4.5295468E-1,-4.6977937E-1,-5.632791E-1,-6.9668177E-3,1.1807016E-2,2.2920378E-2,1.5455042E-2,2.3590157E-2,-3.7003417E-2,3.6495425E-2,-9.888973E-4,5.3745736E-3,1.3995473E-2,-2.0467695E-2,2.6907602E-2,-3.5702975E-3,1.0289499E-2,4.852791E-3,-5.467896E-3,3.2654342E-3,-1.1256617E-2,3.8354613E-3,-5.147889E-3,2.0477286E-2,-1.6702136E-2,-6.278377E-3,-1.5854014E-2,-1.0530575E-2,1.5730528E-2,2.4969952E-2,-6.704165E-3,3.6423113E-2,-6.7978585E-3,2.4759743E-2,-3.971301E-2,1.7327024E-2,-9.0034975E-4,2.9505942E-2,-2.2057442E-2,-2.4693973E-2,4.6460954E-3,-1.5672827E-2,-1.1015682E-3,-2.0286597E-2,3.0772297E-2,-2.8887058E-2,5.4428144E-3,-1.0798476E-2,-2.1660034E-2,-1.6193921E-3,-2.4937747E-2,-3.8914566E-3,-3.3213336E-2,-2.2678535E-2,-3.0207798E-2,-2.683779E-2,-1.4451178E-2,-1.6505445E-3,-1.72332E-2,-2.2992123E-2,-1.05230175E-2,-2.7666548E-2,-2.0671569E-2,-2.890093E-3,-2.8258879E-2],"categories":[],"categories_nodes":[],"categories_segments":[],"categories_sizes":[],"default_left":[0,0,0,0,0,0,0,0,0,0,0,0,0,0,0,0,0,0,0,0,0,0,0,0,0,0,0,0,0,0,0,0,0,0,0,0,0,0,0,0,0,0,0,0,0,0,0,0,0,0,0,0,0,0,0,0,0,0,0,0,0,0,0,0,0,0,0,0,0,0,0,0,0,0,0,0,0,0,0,0,0,0,0,0,0,0,0,0,0,0,0,0,0,0,0,0,0,0,0,0,0,0,0,0,0,0,0,0,0,0,0,0,0,0,0,0,0,0,0,0,0,0,0,0,0],"id":10,"left_children":[1,3,5,7,9,11,13,15,17,19,21,23,25,27,29,31,33,35,37,39,41,43,45,47,49,51,53,55,57,59,61,63,65,67,69,71,73,75,77,79,81,83,85,-1,87,89,91,93,95,97,99,101,103,105,107,109,111,113,115,117,119,121,123,-1,-1,-1,-1,-1,-1,-1,-1,-1,-1,-1,-1,-1,-1,-1,-1,-1,-1,-1,-1,-1,-1,-1,-1,-1,-1,-1,-1,-1,-1,-1,-1,-1,-1,-1,-1,-1,-1,-1,-1,-1,-1,-1,-1,-1,-1,-1,-1,-1,-1,-1,-1,-1,-1,-1,-1,-1,-1,-1,-1,-1,-1],"loss_changes":[1.8075809E3,3.3579584E2,1.1131482E2,1.111886E2,5.2336906E1,3.7180428E1,2.0702637E1,1.9496399E1,4.109323E1,3.0955112E1,4.8298035E0,6.8698273E0,2.891362E1,1.5249634E0,4.9493103E0,1.4157288E1,1.1434723E1,1.2435913E1,1.7723736E1,1.2552333E1,2.1220428E1,1.3194256E0,9.053136E0,5.438857E0,2.4693265E0,6.990579E0,2.3043839E1,1.6652832E0,5.880127E-1,1.9566422E0,2.789978E0,6.0569925E0,1.3755432E1,1.0002953E1,7.798996E0,1.1251007E1,6.294529E0,1.1665085E1,1.2156737E1,7.706748E0,5.9827766E0,1.296184E1,3.4628525E0,0E0,3.5432506E-1,1.4512527E0,2.7327404E0,3.3153348E0,5.040597E0,1.9702334E0,1.3071628E0,4.8642206E-1,5.085497E0,2.507587E0,6.932602E0,7.337265E-1,1.0256958E0,4.7331238E-1,1.8013048E-1,1.0819092E0,6.2625885E-1,2.572342E0,7.869568E-1,0E0,0E0,0E0,0E0,0E0,0E0,0E0,0E0,0E0,0E0,0E0,0E0,0E0,0E0,0E0,0E0,0E0,0E0,0E0,0E0,0E0,0E0,0E0,0E0,0E0,0E0,0E0,0E0,0E0,0E0,0E0,0E0,0E0,0E0,0E0,0E0,0E0,0E0,0E0,0E0,0E0,0E0,0E0,0E0,0E0,0E0,0E0,0E0,0E0,0E0,0E0,0E0,0E0,0E0,0E0,0E0,0E0,0E0,0E0,0E0,0E0,0E0],"parents":[2147483647,0,0,1,1,2,2,3,3,4,4,5,5,6,6,7,7,8,8,9,9,10,10,11,11,12,12,13,13,14,14,15,15,16,16,17,17,18,18,19,19,20,20,21,21,22,22,23,23,24,24,25,25,26,26,27,27,28,28,29,29,30,30,31,31,32,32,33,33,34,34,35,35,36,36,37,37,38,38,39,39,40,40,41,41,42,42,44,44,45,45,46,46,47,47,48,48,49,49,50,50,51,51,52,52,53,53,54,54,55,55,56,56,57,57,58,58,59,59,60,60,61,61,62,62],"right_children":[2,4,6,8,10,12,14,16,18,20,22,24,26,28,30,32,34,36,38,40,42,44,46,48,50,52,54,56,58,60,62,64,66,68,70,72,74,76,78,80,82,84,86,-1,88,90,92,94,96,98,100,102,104,106,108,110,112,114,116,118,120,122,124,-1,-1,-1,-1,-1,-1,-1,-1,-1,-1,-1,-1,-1,-1,-1,-1,-1,-1,-1,-1,-1,-1,-1,-1,-1,-1,-1,-1,-1,-1,-1,-1,-1,-1,-1,-1,-1,-1,-1,-1,-1,-1,-1,-1,-1,-1,-1,-1,-1,-1,-1,-1,-1,-1,-1,-1,-1,-1,-1,-1,-1,-1],"split_conditions":[-1.7893832E0,-5.3392196E-1,-6.8596894E-1,-3.5729945E0,1.559797E0,-1.5159861E0,-2.1269825E-1,5.3260083E0,-1.171079E0,-3.68775E-1,2.9205382E-1,-8.3827275E-1,-3.9366472E-1,-2.8958324E-1,-1.0758371E0,-3.3053486E0,-3.12733E0,-1.5205424E-2,-4.2130595E-1,-2.2671945E0,-1.3412342E0,-2.8581384E-1,-4.666479E-1,-3.3053486E0,-1.0567681E0,-1.5795267E0,-1.4229416E0,-1.6176037E0,-8.161893E-4,-2.4358618E-1,-8.4856737E-1,-6.9620824E-1,-1.3796786E0,3.274374E-2,-2.1708953E0,-2.9511185E0,-1.4934591E0,-3.5825813E-1,-7.604704E-1,-9.779083E-1,-4.1648716E-1,-1.8433219E0,-1.2100399E-2,4.017869E-2,-1.1085056E-1,-3.3697445E0,-1.1048156E-2,-9.042271E-3,-8.2791454E-1,-2.1392486E0,4.9877297E-2,-1.0114446E0,-5.872067E-1,-1.4196403E0,-1.0691689E0,-2.3936075E-1,-9.899571E-1,-1.7893347E-1,-5.6628037E-2,-3.9802495E-1,1.1760458E0,-9.061365E-2,-1.2375836E0,-6.9668177E-3,1.1807016E-2,2.2920378E-2,1.5455042E-2,2.3590157E-2,-3.7003417E-2,3.6495425E-2,-9.888973E-4,5.3745736E-3,1.3995473E-2,-2.0467695E-2,2.6907602E-2,-3.5702975E-3,1.0289499E-2,4.852791E-3,-5.467896E-3,3.2654342E-3,-1.1256617E-2,3.8354613E-3,-5.147889E-3,2.0477286E-2,-1.6702136E-2,-6.278377E-3,-1.5854014E-2,-1.0530575E-2,1.5730528E-2,2.4969952E-2,-6.704165E-3,3.6423113E-2,-6.7978585E-3,2.4759743E-2,-3.971301E-2,1.7327024E-2,-9.0034975E-4,2.9505942E-2,-2.2057442E-2,-2.4693973E-2,4.6460954E-3,-1.5672827E-2,-1.1015682E-3,-2.0286597E-2,3.0772297E-2,-2.8887058E-2,5.4428144E-3,-1.0798476E-2,-2.1660034E-2,-1.6193921E-3,-2.4937747E-2,-3.8914566E-3,-3.3213336E-2,-2.2678535E-2,-3.0207798E-2,-2.683779E-2,-1.4451178E-2,-1.6505445E-3,-1.72332E-2,-2.2992123E-2,-1.05230175E-2,-2.7666548E-2,-2.0671569E-2,-2.890093E-3,-2.8258879E-2],"split_indices":[14,13,0,14,13,3,10,10,13,17,10,14,17,10,14,13,8,18,17,2,12,17,12,13,12,2,12,12,19,17,12,6,13,18,2,13,6,18,13,12,17,0,19,0,18,14,19,19,12,3,17,0,13,13,3,2,6,17,6,17,4,6,8,0,0,0,0,0,0,0,0,0,0,0,0,0,0,0,0,0,0,0,0,0,0,0,0,0,0,0,0,0,0,0,0,0,0,0,0,0,0,0,0,0,0,0,0,0,0,0,0,0,0,0,0,0,0,0,0,0,0,0,0,0,0],"split_type":[0,0,0,0,0,0,0,0,0,0,0,0,0,0,0,0,0,0,0,0,0,0,0,0,0,0,0,0,0,0,0,0,0,0,0,0,0,0,0,0,0,0,0,0,0,0,0,0,0,0,0,0,0,0,0,0,0,0,0,0,0,0,0,0,0,0,0,0,0,0,0,0,0,0,0,0,0,0,0,0,0,0,0,0,0,0,0,0,0,0,0,0,0,0,0,0,0,0,0,0,0,0,0,0,0,0,0,0,0,0,0,0,0,0,0,0,0,0,0,0,0,0,0,0,0],"sum_hessian":[1.9181715E4,1.3619661E4,5.5620537E3,1.0803274E4,2.8163875E3,1.4546251E3,4.1074287E3,3.630207E3,7.173067E3,2.6925547E3,1.23832664E2,2.2667236E2,1.2279528E3,2.0477252E3,2.0597034E3,2.802796E3,8.2741113E2,3.9044224E3,3.2686448E3,1.4750837E3,1.217471E3,5.098845E1,7.2844215E1,1.9265572E2,3.4016655E1,7.1595604E1,1.1563572E3,1.4372788E3,6.104465E2,6.1265564E2,1.4470477E3,2.0287396E2,2.5999219E3,4.9163245E2,3.3577872E2,3.6894592E3,2.1496318E2,1.9472238E3,1.321421E3,5.441025E2,9.309813E2,1.05156715E2,1.1123142E3,4.710436E1,3.8840907E0,3.1332087E1,4.1512127E1,9.237126E0,1.8341858E2,6.325778E0,2.7690878E1,2.2390404E1,4.9205196E1,1.1439078E2,1.0419664E3,5.7201378E1,1.3800774E3,5.8872284E2,2.1723646E1,1.8075964E2,4.3189597E2,5.9397174E2,8.5307605E2,6.058102E1,1.4229294E2,1.561565E3,1.0383568E3,4.8557968E2,6.0527616E0,3.2133237E2,1.4446367E1,4.3007565E2,3.2593835E3,6.560294E0,2.084029E2,1.6546246E2,1.7817612E3,9.061154E2,4.153056E2,1.15550354E2,4.2855212E2,6.7685284E2,2.5412846E2,7.136939E1,3.3787327E1,1.0615283E2,1.00616144E3,1.1118664E0,2.7722242E0,3.1379817E0,2.8194105E1,3.77909E1,3.7212267E0,1.869402E0,7.367725E0,1.3019917E2,5.321941E1,4.3706856E0,1.9550923E0,2.353871E1,4.152168E0,9.666128E0,1.2724276E1,4.7722907E0,4.4432907E1,4.6011076E0,1.0978967E2,1.8092963E2,8.610368E2,3.7499468E0,5.345143E1,3.2726834E0,1.3768047E3,3.8051632E1,5.506712E2,6.969408E0,1.4754238E1,1.2161751E1,1.6859789E2,4.1909576E2,1.2800205E1,2.356842E2,3.582875E2,3.3097086E0,8.4976636E2],"tree_param":{"num_deleted":"0","num_feature":"21","num_nodes":"125","size_leaf_vector":"1"}},{"base_weights":[3.0350413E-3,2.1082795E-1,-4.3151763E-1,3.6437413E-1,1.18555576E-1,2.3682454E-1,-4.8654264E-1,3.1276333E-1,4.9642354E-1,1.8322715E-1,3.1046426E-2,4.1457695E-1,1.1993218E-1,-3.5154408E-1,-5.596455E-1,4.0072286E-1,1.9418855E-1,6.0355216E-1,4.0240952E-1,1.5047653E-1,3.2324952E-1,1.4074221E-1,-8.4614456E-2,5.2893436E-1,1.5575019E-1,7.9539284E-2,3.9083683E-1,-4.912581E-3,-3.773956E-1,-4.480529E-1,-5.8842593E-1,-3.0299184E-1,4.0754825E-1,3.635554E-1,1.5944466E-1,6.24505E-1,-2.7463594E-2,7.781233E-2,4.472151E-1,-3.465161E-2,1.7932911E-1,3.5468367E-1,1.1315129E-1,2.8778253E-2,1.8775453E-1,-9.380516E-3,-1.6819543E-1,5.8060074E-1,-3.2854247E-1,4.852492E-1,3.458934E-2,1.5542817E-1,-9.86039E-2,4.8266134E-1,-3.0613077E-1,6.398871E-2,-3.6927775E-1,-2.1136512E-1,-4.2717734E-1,-3.7539175E-1,-4.848538E-1,-5.522401E-1,-6.2096447E-1,3.0988684E-2,-3.0136157E-2,3.040953E-2,1.9099317E-2,2.0510545E-2,-4.394765E-2,1.3904219E-3,1.11451475E-2,-1.4560488E-2,3.157946E-2,2.4079014E-2,-2.8983012E-2,1.07604815E-2,-2.8080571E-2,2.3145879E-2,-8.195206E-3,1.2052926E-2,-4.622727E-3,1.5015309E-2,7.137574E-3,2.2189936E-2,1.2986533E-2,-1.1164966E-3,1.8664632E-2,1.1554903E-2,-8.707832E-4,1.2434232E-2,3.4597253E-3,-1.6639781E-3,1.6282815E-2,-6.119046E-3,-1.5060968E-2,3.0143938E-3,3.259438E-2,1.1475985E-2,-3.371566E-2,3.5110082E-2,-7.087089E-3,-1.7912893E-2,1.1914849E-2,5.3492254E-3,2.8378723E-2,-1.0759731E-2,1.030817E-3,-1.0533469E-2,2.7245665E-2,-3.2820366E-2,3.6165097E-3,-1.282938E-3,1.1514715E-2,2.1192816E-3,-2.1450672E-2,-1.3532012E-2,1.6098654E-2,-2.3253499E-2,-1.8754717E-2,-1.7752292E-2,-2.8955555E-2,-2.4747415E-2,-1.8903824E-2,-2.961722E-2,-2.47726E-2,-3.0173434E-2,-3.2885905E-2],"categories":[],"categories_nodes":[],"categories_segments":[],"categories_sizes":[],"default_left":[0,0,0,0,0,0,0,0,0,0,0,0,0,0,0,0,0,0,0,0,0,0,0,0,0,0,0,0,0,0,0,0,0,0,0,0,0,0,0,0,0,0,0,0,0,0,0,0,0,0,0,0,0,0,0,0,0,0,0,0,0,0,0,0,0,0,0,0,0,0,0,0,0,0,0,0,0,0,0,0,0,0,0,0,0,0,0,0,0,0,0,0,0,0,0,0,0,0,0,0,0,0,0,0,0,0,0,0,0,0,0,0,0,0,0,0,0,0,0,0,0,0,0,0,0,0,0],"id":11,"left_children":[1,3,5,7,9,11,13,15,17,19,21,23,25,27,29,31,33,35,37,39,41,43,45,47,49,51,53,55,57,59,61,63,65,67,69,71,73,75,77,79,81,83,85,87,89,91,93,95,97,99,101,103,105,107,109,111,113,115,117,119,121,123,125,-1,-1,-1,-1,-1,-1,-1,-1,-1,-1,-1,-1,-1,-1,-1,-1,-1,-1,-1,-1,-1,-1,-1,-1,-1,-1,-1,-1,-1,-1,-1,-1,-1,-1,-1,-1,-1,-1,-1,-1,-1,-1,-1,-1,-1,-1,-1,-1,-1,-1,-1,-1,-1,-1,-1,-1,-1,-1,-1,-1,-1,-1,-1,-1],"loss_changes":[1.712536E3,1.8173871E2,2.257406E2,3.2664124E1,4.5358322E1,9.661127E0,5.574768E1,3.6062256E1,1.3369354E1,2.1088013E1,4.3246197E1,5.393606E0,3.0695848E0,1.7866852E1,1.1541748E1,9.674133E0,8.637287E0,8.342972E0,1.0477974E1,1.9968742E1,5.7242737E0,9.202297E0,1.0432551E1,5.856922E0,2.3031209E0,3.3659682E0,2.4844751E0,3.5234902E0,1.5247253E1,1.8444061E0,3.093933E0,5.8150673E0,9.870117E0,1.4896351E1,1.0251068E1,4.137909E0,6.2370353E0,7.92985E0,6.168915E0,8.066665E0,1.4265686E1,6.3052216E0,4.063636E0,4.849699E0,8.881229E0,7.011684E0,4.753378E0,4.448387E0,1.6805077E0,2.214258E0,3.571627E0,3.4171896E0,1.0421042E0,1.523994E0,6.92055E-1,1.7665024E0,5.6698966E-1,1.36818695E1,2.6411133E0,8.687782E-1,3.5138702E-1,2.8745422E0,5.862427E-1,0E0,0E0,0E0,0E0,0E0,0E0,0E0,0E0,0E0,0E0,0E0,0E0,0E0,0E0,0E0,0E0,0E0,0E0,0E0,0E0,0E0,0E0,0E0,0E0,0E0,0E0,0E0,0E0,0E0,0E0,0E0,0E0,0E0,0E0,0E0,0E0,0E0,0E0,0E0,0E0,0E0,0E0,0E0,0E0,0E0,0E0,0E0,0E0,0E0,0E0,0E0,0E0,0E0,0E0,0E0,0E0,0E0,0E0,0E0,0E0,0E0,0E0,0E0,0E0],"parents":[2147483647,0,0,1,1,2,2,3,3,4,4,5,5,6,6,7,7,8,8,9,9,10,10,11,11,12,12,13,13,14,14,15,15,16,16,17,17,18,18,19,19,20,20,21,21,22,22,23,23,24,24,25,25,26,26,27,27,28,28,29,29,30,30,31,31,32,32,33,33,34,34,35,35,36,36,37,37,38,38,39,39,40,40,41,41,42,42,43,43,44,44,45,45,46,46,47,47,48,48,49,49,50,50,51,51,52,52,53,53,54,54,55,55,56,56,57,57,58,58,59,59,60,60,61,61,62,62],"right_children":[2,4,6,8,10,12,14,16,18,20,22,24,26,28,30,32,34,36,38,40,42,44,46,48,50,52,54,56,58,60,62,64,66,68,70,72,74,76,78,80,82,84,86,88,90,92,94,96,98,100,102,104,106,108,110,112,114,116,118,120,122,124,126,-1,-1,-1,-1,-1,-1,-1,-1,-1,-1,-1,-1,-1,-1,-1,-1,-1,-1,-1,-1,-1,-1,-1,-1,-1,-1,-1,-1,-1,-1,-1,-1,-1,-1,-1,-1,-1,-1,-1,-1,-1,-1,-1,-1,-1,-1,-1,-1,-1,-1,-1,-1,-1,-1,-1,-1,-1,-1,-1,-1,-1,-1,-1,-1],"split_conditions":[-1.0269636E0,-2.2033393E0,-3.9366472E-1,-3.8060457E-1,-3.9802495E-1,-2.609113E-1,-6.0435057E-1,-3.7110322E0,-3.5729945E0,-4.8216213E-2,-1.4665734E0,2.0546782E0,-3.619589E-2,-1.4229416E0,-9.1445744E-1,-1.4229416E0,-3.4101553E0,-1.7327713E0,-2.1299104E-1,-1.7327713E0,-1.2968345E0,-1.7578961E0,-2.802218E-1,-4.6002254E-1,-1.9323171E0,-4.2130595E-1,-3.823272E-2,-6.8596894E-1,-2.829995E-1,-2.1993034E-1,-3.5817692E-1,-3.3787556E0,-2.9022189E-2,2.7927634E-1,-3.4863392E-1,-3.5825813E-1,-1.4898886E-1,-1.713439E-2,-5.713201E-1,-3.9820747E0,-1.7483085E0,-3.1472772E-2,-2.3379018E0,-2.0347135E0,3.0168915E0,-1.0881785E-1,-1.1247472E0,-2.293851E0,-5.1136386E-1,-1.0783483E0,-2.1404636E0,-4.9170348E-1,-1.4533528E0,-3.3905578E-1,-8.0172074E-1,-1.4771168E-2,-7.20176E-1,-3.823272E-2,-1.522254E-1,-3.663284E-1,-1.947786E-2,-9.061365E-2,-2.773964E-2,3.0988684E-2,-3.0136157E-2,3.040953E-2,1.9099317E-2,2.0510545E-2,-4.394765E-2,1.3904219E-3,1.11451475E-2,-1.4560488E-2,3.157946E-2,2.4079014E-2,-2.8983012E-2,1.07604815E-2,-2.8080571E-2,2.3145879E-2,-8.195206E-3,1.2052926E-2,-4.622727E-3,1.5015309E-2,7.137574E-3,2.2189936E-2,1.2986533E-2,-1.1164966E-3,1.8664632E-2,1.1554903E-2,-8.707832E-4,1.2434232E-2,3.4597253E-3,-1.6639781E-3,1.6282815E-2,-6.119046E-3,-1.5060968E-2,3.0143938E-3,3.259438E-2,1.1475985E-2,-3.371566E-2,3.5110082E-2,-7.087089E-3,-1.7912893E-2,1.1914849E-2,5.3492254E-3,2.8378723E-2,-1.0759731E-2,1.030817E-3,-1.0533469E-2,2.7245665E-2,-3.2820366E-2,3.6165097E-3,-1.282938E-3,1.1514715E-2,2.1192816E-3,-2.1450672E-2,-1.3532012E-2,1.6098654E-2,-2.3253499E-2,-1.8754717E-2,-1.7752292E-2,-2.8955555E-2,-2.4747415E-2,-1.8903824E-2,-2.961722E-2,-2.47726E-2,-3.0173434E-2,-3.2885905E-2],"split_indices":[3,3,17,17,17,18,0,14,14,6,3,11,6,12,14,12,0,0,18,0,3,9,17,0,7,17,9,0,17,17,0,2,19,6,18,18,6,6,14,14,3,6,16,3,11,9,3,9,17,0,9,3,9,7,12,17,9,9,6,12,7,6,6,0,0,0,0,0,0,0,0,0,0,0,0,0,0,0,0,0,0,0,0,0,0,0,0,0,0,0,0,0,0,0,0,0,0,0,0,0,0,0,0,0,0,0,0,0,0,0,0,0,0,0,0,0,0,0,0,0,0,0,0,0,0,0,0],"split_type":[0,0,0,0,0,0,0,0,0,0,0,0,0,0,0,0,0,0,0,0,0,0,0,0,0,0,0,0,0,0,0,0,0,0,0,0,0,0,0,0,0,0,0,0,0,0,0,0,0,0,0,0,0,0,0,0,0,0,0,0,0,0,0,0,0,0,0,0,0,0,0,0,0,0,0,0,0,0,0,0,0,0,0,0,0,0,0,0,0,0,0,0,0,0,0,0,0,0,0,0,0,0,0,0,0,0,0,0,0,0,0,0,0,0,0,0,0,0,0,0,0,0,0,0,0,0,0],"sum_hessian":[1.8963594E4,1.2829394E4,6.1342007E3,4.8146343E3,8.014759E3,4.6636444E2,5.667836E3,3.4640847E3,1.3505498E3,4.608133E3,3.406626E3,1.8400719E2,2.8235727E2,1.9930651E3,3.674771E3,1.9874225E3,1.4766621E3,6.287135E2,7.2183636E2,3.7363025E3,8.718302E2,1.7482877E3,1.6583384E3,1.2689678E2,5.7110394E1,2.468453E2,3.551195E1,1.3840762E2,1.8546575E3,7.568288E2,2.9179421E3,1.867417E1,1.9687484E3,2.4974763E2,1.2269144E3,6.08518E2,2.0195465E1,8.7884834E1,6.339515E2,5.0376572E2,3.2325366E3,7.577675E2,1.14062706E2,5.174788E2,1.230809E3,8.7333417E2,7.8500415E2,1.1998982E2,6.9069595E0,1.454635E1,4.2564045E1,1.731928E2,7.365251E1,3.164964E1,3.8623106E0,1.1709029E2,2.1317339E1,4.2902686E2,1.4256306E3,2.5820984E2,4.98619E2,1.3900498E3,1.5278923E3,4.316732E0,1.4357438E1,2.199E2,1.7488484E3,2.4135475E2,8.39288E0,3.9954556E2,8.273689E2,4.363637E0,6.041544E2,1.0574874E1,9.620592E0,7.288663E1,1.499821E1,6.183068E2,1.56446495E1,8.676086E1,4.1700485E2,7.487865E2,2.4837502E3,3.890054E2,3.687621E2,7.560296E1,3.8459747E1,9.5445305E1,4.220335E2,8.122708E2,4.1853806E2,8.1602563E2,5.730856E1,5.8533136E2,1.996728E2,1.4680997E1,1.0530883E2,2.7709498E0,4.136009E0,1.0717803E1,3.8285465E0,1.4275421E1,2.8288624E1,1.5610393E2,1.7088873E1,3.6829906E1,3.68226E1,2.4111645E0,2.9238476E1,1.6244361E0,2.2378745E0,7.662896E1,4.0461334E1,2.7381384E0,1.85792E1,3.8655746E2,4.246937E1,8.2064594E2,6.049847E2,2.3725723E2,2.09526E1,4.5223096E2,4.6388023E1,8.0917267E2,5.808772E2,1.0469375E3,4.809548E2],"tree_param":{"num_deleted":"0","num_feature":"21","num_nodes":"127","size_leaf_vector":"1"}},{"base_weights":[-8.683521E-4,2.0285885E-1,-4.0834638E-1,2.5296813E-1,-1.02173276E-1,1.0084943E-1,-4.7199246E-1,3.562189E-1,1.7556491E-1,-5.07932E-2,-1.9630529E-1,-1.3801694E-1,3.375382E-1,-3.332275E-1,-5.4954374E-1,3.006451E-1,4.3324074E-1,2.5252044E-1,1.2721413E-1,-1.9071753E-1,1.253513E-2,-2.4794677E-2,-2.7070913E-1,-1.706566E-1,5.076808E-1,4.916447E-1,1.8558179E-1,-1.1681401E-2,-3.5772648E-1,-6.170901E-1,-4.7938672E-1,3.8793886E-1,2.0900457E-1,2.6139542E-1,4.811384E-1,2.682694E-1,-2.179604E-2,2.2539195E-1,6.834331E-2,-1.264496E-1,-3.9627227E-1,2.8381118E-1,-2.211618E-2,-4.5448023E-1,1.0820056E-2,-2.9385448E-1,-3.1953596E-2,-3.2075667E-1,-1.4225614E-1,-3.2285997E-1,6.9429535E-1,5.9255856E-1,2.197635E-1,7.7060235E-1,1.1763502E-1,6.558145E-2,-3.4866413E-1,-1.8375437E-1,-4.0329638E-1,-6.4187443E-1,-5.800927E-1,-3.6625436E-1,-4.92781E-1,2.0645877E-2,1.6909076E-3,2.3169179E-2,8.473621E-3,1.5212955E-2,-1.3048403E-2,2.7421856E-2,1.6528925E-2,1.9145226E-2,1.20437285E-2,-2.8321398E-2,1.8300562E-3,-1.9592004E-2,1.2384697E-2,4.2541972E-3,-7.909856E-3,-1.897634E-2,-4.9351137E-3,-9.945749E-3,-2.1810848E-2,-7.6430948E-3,2.248836E-2,2.0503534E-3,-7.5369403E-3,-2.5537023E-2,7.280269E-3,1.034375E-2,-2.7203262E-3,-1.5274616E-2,5.7759555E-3,-8.704203E-3,1.4978776E-2,-2.085863E-2,-6.256626E-3,8.829481E-3,-7.850932E-3,-2.4446359E-2,3.4093508E-3,3.630918E-2,1.0279254E-2,3.2021016E-2,-1.6491462E-2,-5.8824457E-3,3.267541E-2,4.064983E-2,4.6746284E-3,3.7148793E-4,2.902989E-2,9.687163E-4,1.9954484E-2,-9.316342E-4,-2.0104606E-2,-1.1607366E-2,3.4486335E-2,-2.0806776E-2,-1.0617387E-2,-2.7653675E-3,-3.213494E-2,-2.0991769E-2,-2.925112E-2,-1.9002272E-2,-9.186085E-3,-2.1706577E-2,-2.6204396E-2],"categories":[],"categories_nodes":[],"categories_segments":[],"categories_sizes":[],"default_left":[0,0,0,0,0,0,0,0,0,0,0,0,0,0,0,0,0,0,0,0,0,0,0,0,0,0,0,0,0,0,0,0,0,0,0,0,0,0,0,0,0,0,0,0,0,0,0,0,0,0,0,0,0,0,0,0,0,0,0,0,0,0,0,0,0,0,0,0,0,0,0,0,0,0,0,0,0,0,0,0,0,0,0,0,0,0,0,0,0,0,0,0,0,0,0,0,0,0,0,0,0,0,0,0,0,0,0,0,0,0,0,0,0,0,0,0,0,0,0,0,0,0,0,0,0,0,0],"id":12,"left_children":[1,3,5,7,9,11,13,15,17,19,21,23,25,27,29,31,33,35,37,39,41,43,45,47,49,51,53,55,57,59,61,63,65,67,69,71,73,75,77,79,